{"learner":{"attributes":{"scikit_learn":"{\"_estimator_type\": \"regressor\"}"},"feature_names":["ret_1d","ret_5d","ret_10d","ret_20d","ret_60d","vol_20d","volume_z_20d","turnover_ma_20d","close_over_ma20","close_over_ma60","rsi_14","ret_3d_rank","ret_5d_rank","ret_20d_rank","vol_20d_rank","regime_bucket","regime_corr_vp","regime_compact_stable","regime_vp_div","regime_vp_div_vol","alpha_slope_atom_pos","alpha_slope_atom_avg_trade_amt","alpha_slope_atom_vol_ratio"],"feature_types":["float","float","float","float","float","float","float","float","float","float","float","float","float","float","float","float","float","float","float","float","float","float","float"],"gradient_booster":{"model":{"cats":{"enc":[],"feature_segments":[],"sorted_idx":[]},"gbtree_model_param":{"num_parallel_tree":"1","num_trees":"200"},"iteration_indptr":[0,1,2,3,4,5,6,7,8,9,10,11,12,13,14,15,16,17,18,19,20,21,22,23,24,25,26,27,28,29,30,31,32,33,34,35,36,37,38,39,40,41,42,43,44,45,46,47,48,49,50,51,52,53,54,55,56,57,58,59,60,61,62,63,64,65,66,67,68,69,70,71,72,73,74,75,76,77,78,79,80,81,82,83,84,85,86,87,88,89,90,91,92,93,94,95,96,97,98,99,100,101,102,103,104,105,106,107,108,109,110,111,112,113,114,115,116,117,118,119,120,121,122,123,124,125,126,127,128,129,130,131,132,133,134,135,136,137,138,139,140,141,142,143,144,145,146,147,148,149,150,151,152,153,154,155,156,157,158,159,160,161,162,163,164,165,166,167,168,169,170,171,172,173,174,175,176,177,178,179,180,181,182,183,184,185,186,187,188,189,190,191,192,193,194,195,196,197,198,199,200],"tree_info":[0,0,0,0,0,0,0,0,0,0,0,0,0,0,0,0,0,0,0,0,0,0,0,0,0,0,0,0,0,0,0,0,0,0,0,0,0,0,0,0,0,0,0,0,0,0,0,0,0,0,0,0,0,0,0,0,0,0,0,0,0,0,0,0,0,0,0,0,0,0,0,0,0,0,0,0,0,0,0,0,0,0,0,0,0,0,0,0,0,0,0,0,0,0,0,0,0,0,0,0,0,0,0,0,0,0,0,0,0,0,0,0,0,0,0,0,0,0,0,0,0,0,0,0,0,0,0,0,0,0,0,0,0,0,0,0,0,0,0,0,0,0,0,0,0,0,0,0,0,0,0,0,0,0,0,0,0,0,0,0,0,0,0,0,0,0,0,0,0,0,0,0,0,0,0,0,0,0,0,0,0,0,0,0,0,0,0,0,0,0,0,0,0,0,0,0,0,0,0,0],"trees":[{"base_weights":[1.0059744E-4,1.8720085E-3,-2.8191995E-2,3.1834412E-3,-7.360174E-3,-2.504765E-2,-7.906401E-2,3.860515E-3,-5.518635E-3,-5.6809164E-3,-2.2916513E-2,-3.2295946E-3,-3.0334607E-2,-3.9747253E-2,-1.2732834E-1,2.5507027E-2,3.6453963E-3,-6.2596784E-3,5.5398114E-2,-4.555749E-3,-3.1311277E-2,-1.8817548E-2,-1.0818459E-1,4.987926E-3,-1.939714E-2,-2.421421E-2,-5.218402E-2,-4.887992E-2,6.7176074E-2,9.647104E-3,-1.475267E-1,1.9948184E-3,6.7392027E-4,1.1964801E-4,-1.4351995E-4,-7.3814255E-5,-4.7213671E-4,3.0449056E-3,4.8897445E-4,-1.5689188E-4,1.1186088E-3,-4.8526452E-4,-1.5424852E-3,1.774249E-3,-6.3982035E-4,-1.8522454E-3,-5.239394E-3,4.9299717E-5,2.3125794E-3,-1.710473E-4,-1.3475546E-3,-1.0183096E-3,-3.5842892E-4,-1.4731284E-3,-7.0086867E-3,-1.7011777E-3,3.8155771E-3,-1.5818197E-4,4.8141726E-3,-2.206871E-3,1.4962016E-3,-5.39927E-3,-1.5583338E-3],"categories":[],"categories_nodes":[],"categories_segments":[],"categories_sizes":[],"default_left":[0,0,0,0,0,0,0,0,0,0,0,0,0,0,0,0,0,0,0,0,0,0,0,0,0,0,0,0,0,0,0,0,0,0,0,0,0,0,0,0,0,0,0,0,0,0,0,0,0,0,0,0,0,0,0,0,0,0,0,0,0,0,0],"id":0,"left_children":[1,3,5,7,9,11,13,15,17,19,21,23,25,27,29,31,33,35,37,39,41,43,45,47,49,51,53,55,57,59,61,-1,-1,-1,-1,-1,-1,-1,-1,-1,-1,-1,-1,-1,-1,-1,-1,-1,-1,-1,-1,-1,-1,-1,-1,-1,-1,-1,-1,-1,-1,-1,-1],"loss_changes":[8.874388E0,2.0177858E0,1.6564617E0,8.5988545E-1,5.383853E-1,1.130332E0,1.1262772E0,6.27682E-1,4.7064233E-1,5.3589576E-1,6.888294E-1,2.5688908E-1,1.0486107E0,3.2955635E-1,7.6221466E-1,1.5524387E-1,3.875544E-1,3.7274992E-1,2.1186766E-1,5.0263655E-1,2.306788E-1,3.7373757E-1,2.4646747E-1,2.9848847E-1,2.2257495E-1,7.329278E-1,9.2471695E-1,4.2868865E-1,1.921055E-1,1.1845218E-1,6.9942427E-1,0E0,0E0,0E0,0E0,0E0,0E0,0E0,0E0,0E0,0E0,0E0,0E0,0E0,0E0,0E0,0E0,0E0,0E0,0E0,0E0,0E0,0E0,0E0,0E0,0E0,0E0,0E0,0E0,0E0,0E0,0E0,0E0],"parents":[2147483647,0,0,1,1,2,2,3,3,4,4,5,5,6,6,7,7,8,8,9,9,10,10,11,11,12,12,13,13,14,14,15,15,16,16,17,17,18,18,19,19,20,20,21,21,22,22,23,23,24,24,25,25,26,26,27,27,28,28,29,29,30,30],"right_children":[2,4,6,8,10,12,14,16,18,20,22,24,26,28,30,32,34,36,38,40,42,44,46,48,50,52,54,56,58,60,62,-1,-1,-1,-1,-1,-1,-1,-1,-1,-1,-1,-1,-1,-1,-1,-1,-1,-1,-1,-1,-1,-1,-1,-1,-1,-1,-1,-1,-1,-1,-1,-1],"split_conditions":[4.6941897E-1,2.300224E-1,2.1272902E0,1.1330275E-1,1.7269632E0,4.4827587E1,4.087687E-1,-1.8629186E-1,4.8034325E-1,5.6107596E-2,8.9993805E1,-4.6046596E-2,9.7816825E-1,7.725412E-2,1.1564811E-1,-9.545169E-1,2.2192279E-1,1.17529884E-1,5.355027E-1,1.0368826E-1,-3.06436E-1,6.2994193E-3,3.2531017E-1,-5.059524E-2,-3.1327164E-1,4.968394E-2,5.348314E-1,5.7873078E-2,1.9982848E-1,5.832269E-1,9.2650104E-1,1.9948184E-3,6.7392027E-4,1.1964801E-4,-1.4351995E-4,-7.3814255E-5,-4.7213671E-4,3.0449056E-3,4.8897445E-4,-1.5689188E-4,1.1186088E-3,-4.8526452E-4,-1.5424852E-3,1.774249E-3,-6.3982035E-4,-1.8522454E-3,-5.239394E-3,4.9299717E-5,2.3125794E-3,-1.710473E-4,-1.3475546E-3,-1.0183096E-3,-3.5842892E-4,-1.4731284E-3,-7.0086867E-3,-1.7011777E-3,3.8155771E-3,-1.5818197E-4,4.8141726E-3,-2.206871E-3,1.4962016E-3,-5.39927E-3,-1.5583338E-3],"split_indices":[4,4,6,3,6,10,9,9,19,5,10,2,4,7,17,16,21,2,19,7,6,7,9,2,6,7,17,5,3,4,16,0,0,0,0,0,0,0,0,0,0,0,0,0,0,0,0,0,0,0,0,0,0,0,0,0,0,0,0,0,0,0,0],"split_type":[0,0,0,0,0,0,0,0,0,0,0,0,0,0,0,0,0,0,0,0,0,0,0,0,0,0,0,0,0,0,0,0,0,0,0,0,0,0,0,0,0,0,0,0,0,0,0,0,0,0,0,0,0,0,0,0,0,0,0,0,0,0,0],"sum_hessian":[1.77121E5,1.66689E5,1.0432E4,1.45966E5,2.0723E4,9.828E3,6.04E2,1.3544E5,1.0526E4,1.8711E4,2.012E3,1.921E3,7.907E3,3.35E2,2.69E2,1.327E3,1.34113E5,1.0402E4,1.24E2,1.7929E4,7.82E2,1.922E3,9E1,1.27E3,6.51E2,6.182E3,1.725E3,3.1E2,2.5E1,3.4E1,2.35E2,8.8E1,1.239E3,1.28883E5,5.23E3,7.434E3,2.968E3,5.5E1,6.9E1,1.7648E4,2.81E2,4.5E2,3.32E2,5.8E1,1.864E3,5.5E1,3.5E1,1.216E3,5.4E1,4.27E2,2.24E2,3.442E3,2.74E3,1.698E3,2.7E1,2.98E2,1.2E1,1.4E1,1.1E1,1E1,2.4E1,1.74E2,6.1E1],"tree_param":{"num_deleted":"0","num_feature":"23","num_nodes":"63","size_leaf_vector":"1"}},{"base_weights":[-1.1123671E-4,1.989038E-3,-2.051988E-2,3.031718E-3,-4.110543E-3,-1.7774988E-2,-8.428686E-2,3.536686E-3,-9.292982E-3,-1.8819657E-3,-1.0750355E-2,-8.194457E-2,-1.6561277E-2,-1.726206E-1,-6.146144E-2,1.30596245E-2,3.0205105E-3,-8.056078E-3,-7.40033E-2,-2.1209412E-3,1.563053E-1,-8.590139E-3,-3.990649E-2,-2.4331307E-2,-9.840165E-2,-9.618833E-3,-2.4701865E-2,-2.525382E-1,-4.787598E-2,-1.1291021E-2,-8.142408E-2,1.2099833E-4,5.445591E-4,1.1195432E-4,-7.1551025E-5,-3.9566026E-4,1.1822156E-4,-1.23837E-3,-3.5294562E-3,-9.419667E-5,3.824409E-4,9.7434886E-4,9.393505E-3,7.469538E-4,-3.1613637E-4,-5.17655E-3,-1.0650079E-3,-2.8746878E-3,3.9664046E-5,-1.7744715E-3,-3.5364563E-3,-1.739657E-4,-9.70327E-4,-6.499054E-4,-1.4954366E-3,-3.7578891E-3,-9.572253E-3,1.3702226E-4,-5.945772E-3,-2.2978855E-3,8.535875E-4,-2.9780758E-3,-0E0],"categories":[],"categories_nodes":[],"categories_segments":[],"categories_sizes":[],"default_left":[0,0,0,0,0,0,1,0,0,0,1,0,0,0,0,0,0,0,0,0,0,0,0,0,0,0,0,0,0,0,0,0,0,0,0,0,0,0,0,0,0,0,0,0,0,0,0,0,0,0,0,0,0,0,0,0,0,0,0,0,0,0,0],"id":1,"left_children":[1,3,5,7,9,11,13,15,17,19,21,23,25,27,29,31,33,35,37,39,41,43,45,47,49,51,53,55,57,59,61,-1,-1,-1,-1,-1,-1,-1,-1,-1,-1,-1,-1,-1,-1,-1,-1,-1,-1,-1,-1,-1,-1,-1,-1,-1,-1,-1,-1,-1,-1,-1,-1],"loss_changes":[7.633272E0,1.0265343E0,2.8968282E0,8.5750806E-1,3.4722337E-1,1.2297835E0,1.3451004E0,6.494262E-1,4.249369E-1,6.5198267E-1,3.668514E-1,2.6408732E-1,8.802905E-1,1.3435998E0,5.3664684E-1,3.1027234E-1,4.83279E-1,3.2855436E-1,1.2207681E-1,2.6604983E-1,4.6012604E-1,3.578363E-1,2.0919311E-1,1.3428918E-1,1.488998E-1,7.2954667E-1,5.412555E-1,6.269522E-1,4.6172154E-1,4.1708022E-1,5.645218E-1,0E0,0E0,0E0,0E0,0E0,0E0,0E0,0E0,0E0,0E0,0E0,0E0,0E0,0E0,0E0,0E0,0E0,0E0,0E0,0E0,0E0,0E0,0E0,0E0,0E0,0E0,0E0,0E0,0E0,0E0,0E0,0E0],"parents":[2147483647,0,0,1,1,2,2,3,3,4,4,5,5,6,6,7,7,8,8,9,9,10,10,11,11,12,12,13,13,14,14,15,15,16,16,17,17,18,18,19,19,20,20,21,21,22,22,23,23,24,24,25,25,26,26,27,27,28,28,29,29,30,30],"right_children":[2,4,6,8,10,12,14,16,18,20,22,24,26,28,30,32,34,36,38,40,42,44,46,48,50,52,54,56,58,60,62,-1,-1,-1,-1,-1,-1,-1,-1,-1,-1,-1,-1,-1,-1,-1,-1,-1,-1,-1,-1,-1,-1,-1,-1,-1,-1,-1,-1,-1,-1,-1,-1],"split_conditions":[1.6856931E-1,8.188324E-2,3.224663E-1,2.0674959E-1,3.511485E-2,-9.379605E-2,-2.4470785E-3,-1.2879801E-1,1.255207E-1,1.0368826E-1,3.4719255E-2,2.992772E-1,4.1301634E-2,3.838015E-1,1.9094065E-1,2.4196872E-2,3.3196293E-2,2.500949E-1,2.992772E-1,5.422633E-2,1.6778523E-2,1.357104E-2,4.016064E-2,-2.962963E-2,2.8722885E-1,1.6058394E-1,9.839034E-1,-4.750418E-3,7.725412E-2,4.5849714E-2,4.105075E-1,1.2099833E-4,5.445591E-4,1.1195432E-4,-7.1551025E-5,-3.9566026E-4,1.1822156E-4,-1.23837E-3,-3.5294562E-3,-9.419667E-5,3.824409E-4,9.7434886E-4,9.393505E-3,7.469538E-4,-3.1613637E-4,-5.17655E-3,-1.0650079E-3,-2.8746878E-3,3.9664046E-5,-1.7744715E-3,-3.5364563E-3,-1.739657E-4,-9.70327E-4,-6.499054E-4,-1.4954366E-3,-3.7578891E-3,-9.572253E-3,1.3702226E-4,-5.945772E-3,-2.2978855E-3,8.535875E-4,-2.9780758E-3,-0E0],"split_indices":[9,9,8,21,5,0,20,9,8,7,20,17,5,19,17,5,7,19,17,7,1,7,11,2,9,1,12,20,7,5,17,0,0,0,0,0,0,0,0,0,0,0,0,0,0,0,0,0,0,0,0,0,0,0,0,0,0,0,0,0,0,0,0],"split_type":[0,0,0,0,0,0,0,0,0,0,0,0,0,0,0,0,0,0,0,0,0,0,0,0,0,0,0,0,0,0,0,0,0,0,0,0,0,0,0,0,0,0,0,0,0,0,0,0,0,0,0,0,0,0,0,0,0,0,0,0,0,0,0],"sum_hessian":[1.78037E5,1.61421E5,1.6616E4,1.3787E5,2.3551E4,1.5933E4,6.83E2,1.32452E5,5.418E3,1.7645E4,5.906E3,2.93E2,1.564E4,1.38E2,5.45E2,6.799E3,1.25653E5,5.319E3,9.9E1,1.762E4,2.5E1,5.503E3,4.03E2,6.7E1,2.26E2,8.449E3,7.191E3,8.3E1,5.5E1,1.57E2,3.88E2,2.46E3,4.339E3,1.11058E5,1.4595E4,3.731E3,1.588E3,5.9E1,4E1,1.6497E4,1.123E3,1.5E1,1E1,2.99E2,5.204E3,1.1E1,3.92E2,1.8E1,4.9E1,7.8E1,1.48E2,7.238E3,1.211E3,6.421E3,7.7E2,3E1,5.3E1,4.1E1,1.4E1,6E1,9.7E1,3.18E2,7E1],"tree_param":{"num_deleted":"0","num_feature":"23","num_nodes":"63","size_leaf_vector":"1"}},{"base_weights":[-8.00486E-5,2.2695616E-3,-1.9896595E-2,3.8344448E-3,-2.826316E-3,-1.6998967E-2,-5.6610297E-2,3.6805905E-2,3.6659797E-3,-2.2435288E-3,-4.17399E-2,-1.5723044E-2,-8.5799485E-2,-3.8319223E-2,-9.541896E-2,5.519196E-2,7.154294E-3,4.3681134E-3,-3.377293E-4,-1.5171338E-3,-1.2204589E-2,-2.9775199E-2,-9.976265E-2,-1.4509608E-2,-5.4467924E-2,-1.1147259E-1,1.2138018E-1,3.343916E-2,-4.579451E-2,-1.2677976E-1,-5.0308876E-2,2.363195E-3,1.1823549E-3,-5.623766E-4,8.395987E-4,1.4611174E-4,-2.983582E-5,1.757409E-4,-8.793627E-5,-3.97189E-5,-1.0498746E-3,-2.2445853E-4,-1.2886631E-3,-3.6209752E-3,-7.3381106E-4,-1.9939E-3,-5.097907E-3,2.4599038E-5,-5.051395E-4,-7.830273E-4,-3.0637113E-3,-1.6465072E-4,-4.240294E-3,8.159868E-3,-1.4463722E-3,-7.0130295E-4,1.4943448E-3,-1.7576222E-3,-2.5478067E-4,-3.1441632E-3,-5.959298E-3,1.764461E-3,-2.1064144E-3],"categories":[],"categories_nodes":[],"categories_segments":[],"categories_sizes":[],"default_left":[0,0,0,0,0,0,0,0,0,0,0,0,0,0,0,0,0,0,0,0,0,0,0,0,0,0,0,0,0,0,0,0,0,0,0,0,0,0,0,0,0,0,0,0,0,0,0,0,0,0,0,0,0,0,0,0,0,0,0,0,0,0,0],"id":2,"left_children":[1,3,5,7,9,11,13,15,17,19,21,23,25,27,29,31,33,35,37,39,41,43,45,47,49,51,53,55,57,59,61,-1,-1,-1,-1,-1,-1,-1,-1,-1,-1,-1,-1,-1,-1,-1,-1,-1,-1,-1,-1,-1,-1,-1,-1,-1,-1,-1,-1,-1,-1,-1,-1],"loss_changes":[8.2920685E0,1.2694373E0,1.999969E0,6.723217E-1,8.432696E-1,1.5248113E0,9.611459E-1,3.2919896E-1,3.4105265E-1,2.6512778E-1,3.652053E-1,8.0025387E-1,1.6986456E0,5.069964E-1,5.9696174E-1,1.2573624E-1,1.3040382E-1,2.781471E-1,2.8992298E-1,2.1840806E-1,3.5682642E-1,2.0385805E-1,1.8002743E-1,5.965111E-1,6.861236E-1,8.804643E-1,9.2950606E-1,8.566633E-2,3.9984477E-1,3.5467815E-1,4.0276584E-1,0E0,0E0,0E0,0E0,0E0,0E0,0E0,0E0,0E0,0E0,0E0,0E0,0E0,0E0,0E0,0E0,0E0,0E0,0E0,0E0,0E0,0E0,0E0,0E0,0E0,0E0,0E0,0E0,0E0,0E0,0E0,0E0],"parents":[2147483647,0,0,1,1,2,2,3,3,4,4,5,5,6,6,7,7,8,8,9,9,10,10,11,11,12,12,13,13,14,14,15,15,16,16,17,17,18,18,19,19,20,20,21,21,22,22,23,23,24,24,25,25,26,26,27,27,28,28,29,29,30,30],"right_children":[2,4,6,8,10,12,14,16,18,20,22,24,26,28,30,32,34,36,38,40,42,44,46,48,50,52,54,56,58,60,62,-1,-1,-1,-1,-1,-1,-1,-1,-1,-1,-1,-1,-1,-1,-1,-1,-1,-1,-1,-1,-1,-1,-1,-1,-1,-1,-1,-1,-1,-1,-1,-1],"split_conditions":[3.3545646E-1,2.6132405E-2,1.1115152E0,-1.6765054E-1,2.7608657E-1,8.9993805E1,7.3219376E1,-5.1225275E-1,1.3207547E-1,1.291204E-1,9.9596775E-1,6.590428E-2,5.4599553E-2,4.0258343E1,9.8792756E-1,-1.0001348E-1,1.617647E1,7.7710843E-1,-8.9828765E-1,3.0850742E0,1.6961789E-1,7.172028E-1,1.732327E-1,-5.374605E-2,1.8364571E-1,3.4246576E-1,5.7873078E-2,9.976246E-3,9.294355E-1,5.4599553E-2,2.4096385E-2,2.363195E-3,1.1823549E-3,-5.623766E-4,8.395987E-4,1.4611174E-4,-2.983582E-5,1.757409E-4,-8.793627E-5,-3.97189E-5,-1.0498746E-3,-2.2445853E-4,-1.2886631E-3,-3.6209752E-3,-7.3381106E-4,-1.9939E-3,-5.097907E-3,2.4599038E-5,-5.051395E-4,-7.830273E-4,-3.0637113E-3,-1.6465072E-4,-4.240294E-3,8.159868E-3,-1.4463722E-3,-7.0130295E-4,1.4943448E-3,-1.7576222E-3,-2.5478067E-4,-3.1441632E-3,-5.959298E-3,1.764461E-3,-2.1064144E-3],"split_indices":[4,8,4,8,22,10,10,16,4,22,12,20,5,10,14,0,10,12,6,21,3,16,19,8,8,3,5,16,12,5,18,0,0,0,0,0,0,0,0,0,0,0,0,0,0,0,0,0,0,0,0,0,0,0,0,0,0,0,0,0,0,0,0],"split_type":[0,0,0,0,0,0,0,0,0,0,0,0,0,0,0,0,0,0,0,0,0,0,0,0,0,0,0,0,0,0,0,0,0,0,0,0,0,0,0,0,0,0,0,0,0,0,0,0,0,0,0,0,0,0,0,0,0,0,0,0,0,0,0],"sum_hessian":[1.7805E5,1.59173E5,1.8877E4,1.21792E5,3.7381E4,1.75E4,1.377E3,6.15E2,1.21177E5,3.6833E4,5.48E2,1.7184E4,3.16E2,9.39E2,4.38E2,3.77E2,2.38E2,1.03118E5,1.8059E4,3.434E4,2.493E3,4.57E2,9.1E1,1.6666E4,5.18E2,2.82E2,3.4E1,8.7E1,8.52E2,2.56E2,1.82E2,1.47E2,2.3E2,1.04E2,1.34E2,9.4304E4,8.814E3,5.317E3,1.2742E4,3.4147E4,1.93E2,2.165E3,3.28E2,2.3E1,4.34E2,6.4E1,2.7E1,2.192E3,1.4474E4,3.27E2,1.91E2,6.3E1,2.19E2,1.8E1,1.6E1,1.8E1,6.9E1,6.32E2,2.2E2,1.99E2,5.7E1,2.7E1,1.55E2],"tree_param":{"num_deleted":"0","num_feature":"23","num_nodes":"63","size_leaf_vector":"1"}},{"base_weights":[-4.1031948E-5,1.504764E-3,-2.6859645E-2,2.9689497E-3,-5.1019206E-3,-2.1166015E-2,-6.076649E-2,3.4800522E-2,2.8080803E-3,-4.1890354E-3,-2.650065E-2,-1.9629028E-2,-7.210455E-2,-5.1246665E-2,-1.3737054E-1,2.681149E-2,6.94911E-2,3.2326228E-3,-7.536162E-3,-3.4337544E-3,-2.7785964E-2,-2.2313919E-2,-1.3043717E-1,-7.298051E-2,-1.834083E-2,-1.3345509E-3,-1.1826031E-1,-8.139188E-2,-3.3845726E-2,-9.4685875E-2,-2.3771733E-1,1.0307047E-4,1.1092643E-3,2.689288E-3,4.7676862E-4,1.13127324E-4,-1.1099773E-4,-1.9263296E-4,-2.0188869E-3,-9.683444E-5,-2.2747435E-3,-4.9396633E-4,-2.0329317E-3,-2.251021E-3,-5.1887654E-4,-4.8454716E-3,-1.4854097E-4,-3.2402184E-3,-4.485577E-4,-6.709687E-4,6.871252E-5,3.1168489E-3,-8.8744255E-4,2.5082982E-5,-4.0459675E-3,-2.78125E-3,-6.340496E-4,1.8161889E-4,-1.8200779E-3,-5.712664E-3,-0E0,-1.0063484E-2,-4.3806876E-3],"categories":[],"categories_nodes":[],"categories_segments":[],"categories_sizes":[],"default_left":[0,0,0,0,0,0,0,0,0,0,0,0,0,0,0,0,0,0,0,0,0,0,0,0,0,0,0,0,0,0,0,0,0,0,0,0,0,0,0,0,0,0,0,0,0,0,0,0,0,0,0,0,0,0,0,0,0,0,0,0,0,0,0],"id":3,"left_children":[1,3,5,7,9,11,13,15,17,19,21,23,25,27,29,31,33,35,37,39,41,43,45,47,49,51,53,55,57,59,61,-1,-1,-1,-1,-1,-1,-1,-1,-1,-1,-1,-1,-1,-1,-1,-1,-1,-1,-1,-1,-1,-1,-1,-1,-1,-1,-1,-1,-1,-1,-1,-1],"loss_changes":[7.3755436E0,1.6264348E0,1.8623624E0,7.0107055E-1,5.9250754E-1,6.397047E-1,9.8849535E-1,1.7945898E-1,6.01125E-1,5.18121E-1,5.227111E-1,5.4388285E-1,7.750956E-1,6.361697E-1,5.953083E-1,1.2983337E-1,1.2411624E-1,4.9105406E-1,3.5143238E-1,4.1449687E-1,3.9913422E-1,3.0613726E-1,1.6584963E-1,3.6820948E-1,6.5630317E-1,2.8396523E-1,3.0027175E-1,2.9419065E-1,8.51327E-1,9.8084176E-1,2.9717493E-1,0E0,0E0,0E0,0E0,0E0,0E0,0E0,0E0,0E0,0E0,0E0,0E0,0E0,0E0,0E0,0E0,0E0,0E0,0E0,0E0,0E0,0E0,0E0,0E0,0E0,0E0,0E0,0E0,0E0,0E0,0E0,0E0],"parents":[2147483647,0,0,1,1,2,2,3,3,4,4,5,5,6,6,7,7,8,8,9,9,10,10,11,11,12,12,13,13,14,14,15,15,16,16,17,17,18,18,19,19,20,20,21,21,22,22,23,23,24,24,25,25,26,26,27,27,28,28,29,29,30,30],"right_children":[2,4,6,8,10,12,14,16,18,20,22,24,26,28,30,32,34,36,38,40,42,44,46,48,50,52,54,56,58,60,62,-1,-1,-1,-1,-1,-1,-1,-1,-1,-1,-1,-1,-1,-1,-1,-1,-1,-1,-1,-1,-1,-1,-1,-1,-1,-1,-1,-1,-1,-1,-1,-1],"split_conditions":[2.2996017E-1,8.188324E-2,5.149591E-1,-1.6765054E-1,5.3325165E-2,8.9993805E1,2.1272902E0,3.2931727E-1,2.0674959E-1,1.841617E-1,6.702317E1,-9.379605E-2,3.7084398E-1,6.505268E-2,2.7363393E-1,-4.149899E-1,1.3827655E-1,7.995992E-1,1.255207E-1,1.3861701E-1,1.8627737E-1,3.4068137E-1,6.33391E-2,9.718875E-1,4.9295774E-1,4.0379125E-1,9.4388777E-1,7.0883536E-1,9.04833E-2,4.726065E-2,2.536636E0,1.0307047E-4,1.1092643E-3,2.689288E-3,4.7676862E-4,1.13127324E-4,-1.1099773E-4,-1.9263296E-4,-2.0188869E-3,-9.683444E-5,-2.2747435E-3,-4.9396633E-4,-2.0329317E-3,-2.251021E-3,-5.1887654E-4,-4.8454716E-3,-1.4854097E-4,-3.2402184E-3,-4.485577E-4,-6.709687E-4,6.871252E-5,3.1168489E-3,-8.8744255E-4,2.5082982E-5,-4.0459675E-3,-2.78125E-3,-6.340496E-4,1.8161889E-4,-1.8200779E-3,-5.712664E-3,-0E0,-1.0063484E-2,-4.3806876E-3],"split_indices":[9,9,9,8,5,10,6,11,21,22,10,0,3,7,19,6,13,13,8,7,3,13,7,13,18,6,13,18,7,5,6,0,0,0,0,0,0,0,0,0,0,0,0,0,0,0,0,0,0,0,0,0,0,0,0,0,0,0,0,0,0,0,0],"split_type":[0,0,0,0,0,0,0,0,0,0,0,0,0,0,0,0,0,0,0,0,0,0,0,0,0,0,0,0,0,0,0,0,0,0,0,0,0,0,0,0,0,0,0,0,0,0,0,0,0,0,0,0,0,0,0,0,0,0,0,0,0,0,0],"sum_hessian":[1.77849E5,1.68154E5,9.695E3,1.37661E5,3.0493E4,8.305E3,1.39E3,6.88E2,1.36973E5,2.9251E4,1.242E3,8.065E3,2.4E2,1.239E3,1.51E2,5.63E2,1.25E2,1.31583E5,5.39E3,2.8349E4,9.02E2,1.196E3,4.6E1,1.87E2,7.878E3,9.6E1,1.44E2,4.5E2,7.89E2,1.08E2,4.3E1,1.74E2,3.89E2,8.9E1,3.6E1,1.22116E5,9.467E3,5.294E3,9.6E1,2.8271E4,7.8E1,7.06E2,1.96E2,1.01E2,1.095E3,3.6E1,1E1,1.15E2,7.2E1,6.596E3,1.282E3,1.9E1,7.7E1,1.7E1,1.27E2,3.77E2,7.3E1,3.16E2,4.73E2,5.3E1,5.5E1,1.9E1,2.4E1],"tree_param":{"num_deleted":"0","num_feature":"23","num_nodes":"63","size_leaf_vector":"1"}},{"base_weights":[-9.359688E-5,1.5690189E-3,-2.8737115E-2,2.7665768E-3,-6.864484E-3,-3.6573166E-3,-3.4393888E-2,3.0925432E-3,-1.6010229E-2,-6.3428315E-3,-6.506883E-2,-1.0193272E-1,-1.9369562E-3,-2.8798211E-2,-6.507418E-2,1.2222924E-2,2.6395302E-3,-1.2040227E-2,-5.7866566E-2,1.1375207E-2,-7.849259E-3,-4.3736693E-2,-5.849754E-3,-7.901477E-4,-4.8054517E-3,4.9063447E-3,-2.8277727E-2,-1.5643746E-2,-3.7510112E-2,-6.060427E-2,-2.0836844E-1,1.7252933E-4,5.616253E-4,1.03481456E-4,-1.9563524E-5,-2.870405E-4,-2.4558564E-3,-1.1890581E-3,-3.5516163E-3,-3.2228316E-5,9.061624E-4,3.1777086E-5,-3.452327E-4,4.1704855E-4,-1.9974425E-3,4.6361584E-4,-1.8122072E-4,-3.4339717E-3,-5.752363E-4,-7.784217E-4,1.8617646E-4,-1.4167755E-3,-2.0434866E-4,-2.6480106E-3,-1.2440019E-3,-8.415581E-3,-4.3547363E-3],"categories":[],"categories_nodes":[],"categories_segments":[],"categories_sizes":[],"default_left":[0,0,0,0,0,0,0,0,0,0,0,0,0,0,0,0,0,0,0,0,0,0,0,0,0,0,0,0,0,0,0,0,0,0,0,0,0,0,0,0,0,0,0,0,0,0,0,0,0,0,0,0,0,0,0,0,0],"id":4,"left_children":[1,3,5,7,9,11,13,15,17,19,21,23,25,27,29,31,33,35,37,39,41,43,-1,-1,-1,45,47,49,51,53,55,-1,-1,-1,-1,-1,-1,-1,-1,-1,-1,-1,-1,-1,-1,-1,-1,-1,-1,-1,-1,-1,-1,-1,-1,-1,-1],"loss_changes":[8.483542E0,1.6994641E0,1.3825722E0,9.0088665E-1,6.2756795E-1,2.9424718E-1,1.3571768E0,5.9774387E-1,4.0939862E-1,5.5317354E-1,4.775613E-1,1.09228164E-1,3.2225326E-1,7.6719236E-1,7.457433E-1,2.8501165E-1,3.6827773E-1,3.863952E-1,2.1673E-1,3.8271624E-1,6.240803E-1,2.168706E-1,0E0,0E0,0E0,1.6337712E-1,2.7395305E-1,6.0863745E-1,1.2031164E0,6.1387825E-1,8.089793E-2,0E0,0E0,0E0,0E0,0E0,0E0,0E0,0E0,0E0,0E0,0E0,0E0,0E0,0E0,0E0,0E0,0E0,0E0,0E0,0E0,0E0,0E0,0E0,0E0,0E0,0E0],"parents":[2147483647,0,0,1,1,2,2,3,3,4,4,5,5,6,6,7,7,8,8,9,9,10,10,11,11,12,12,13,13,14,14,15,15,16,16,17,17,18,18,19,19,20,20,21,21,25,25,26,26,27,27,28,28,29,29,30,30],"right_children":[2,4,6,8,10,12,14,16,18,20,22,24,26,28,30,32,34,36,38,40,42,44,-1,-1,-1,46,48,50,52,54,56,-1,-1,-1,-1,-1,-1,-1,-1,-1,-1,-1,-1,-1,-1,-1,-1,-1,-1,-1,-1,-1,-1,-1,-1,-1,-1],"split_conditions":[4.8811817E-1,2.341629E-1,4.4827587E1,1.06141075E-1,8.9993805E1,-8.2696176E-1,1.1115152E0,-1.2879801E-1,2.7608657E-1,-9.9100985E-2,9.358717E-1,3.880008E-1,-1.5228426E-2,4.1301634E-2,5.219303E-1,2.7210206E-2,7.53507E-1,9.919517E-1,9.9596775E-1,4.363819E-2,2.778738E-2,1.8278657E-1,-5.849754E-3,-7.901477E-4,-4.8054517E-3,-6.484642E-2,4.024145E-2,8.5915494E-1,9.839034E-1,6.902975E-2,5.8915254E-2,1.7252933E-4,5.616253E-4,1.03481456E-4,-1.9563524E-5,-2.870405E-4,-2.4558564E-3,-1.1890581E-3,-3.5516163E-3,-3.2228316E-5,9.061624E-4,3.1777086E-5,-3.452327E-4,4.1704855E-4,-1.9974425E-3,4.6361584E-4,-1.8122072E-4,-3.4339717E-3,-5.752363E-4,-7.784217E-4,1.8617646E-4,-1.4167755E-3,-2.0434866E-4,-2.6480106E-3,-1.2440019E-3,-8.415581E-3,-4.3547363E-3],"split_indices":[4,4,10,8,10,18,4,9,22,3,14,19,2,5,17,5,12,13,12,7,5,2,0,0,0,3,13,14,14,7,7,0,0,0,0,0,0,0,0,0,0,0,0,0,0,0,0,0,0,0,0,0,0,0,0,0,0],"split_type":[0,0,0,0,0,0,0,0,0,0,0,0,0,0,0,0,0,0,0,0,0,0,0,0,0,0,0,0,0,0,0,0,0,0,0,0,0,0,0,0,0,0,0,0,0,0,0,0,0,0,0,0,0,0,0,0,0],"sum_hessian":[1.7808E5,1.68308E5,9.772E3,1.47391E5,2.0917E4,1.802E3,7.97E3,1.44882E5,2.509E3,2.0734E4,1.83E2,2.9E1,1.773E3,6.745E3,1.225E3,6.837E3,1.38045E5,2.295E3,2.14E2,1.619E3,1.9115E4,1.59E2,2.4E1,1.4E1,1.5E1,1.405E3,3.68E2,2.693E3,4.052E3,1.19E3,3.5E1,3.434E3,3.403E3,1.10812E5,2.7233E4,2.219E3,7.6E1,1.67E2,4.7E1,9.72E2,6.47E2,5.557E3,1.3558E4,4.4E1,1.15E2,7.2E2,6.85E2,3.3E1,3.35E2,1.833E3,8.6E2,3.075E3,9.77E2,4.83E2,7.07E2,1.4E1,2.1E1],"tree_param":{"num_deleted":"0","num_feature":"23","num_nodes":"57","size_leaf_vector":"1"}},{"base_weights":[4.1973213E-5,5.8447395E-4,-4.5204945E-2,1.8456739E-3,-9.88756E-3,-3.6053307E-2,-1.3070178E-1,1.964134E-3,-3.6288004E-2,-7.4160686E-3,-2.7433066E-2,-4.975575E-2,-0E0,-7.585013E-2,-1.894354E-1,2.9870903E-3,-2.243617E-3,4.3107472E-2,-5.3847495E-2,-4.5934343E-3,-2.4554892E-2,-2.020094E-2,-7.220871E-2,-3.2057952E-2,-9.477941E-2,8.813837E-2,-3.515166E-2,7.838989E-4,-9.2558205E-2,-2.6036677E-1,-4.9490925E-2,8.707769E-4,8.551708E-5,-2.889633E-5,-3.8871856E-4,2.0746728E-3,2.481553E-4,-8.5387856E-4,-2.6628482E-3,-1.7634168E-4,1.1761194E-3,-1.3203345E-3,-1.819238E-4,-6.760449E-4,3.5075806E-3,-1.0277709E-3,-3.4213315E-3,5.7556135E-5,-1.8873044E-3,-1.2417575E-3,-4.230044E-3,6.5678345E-5,4.425965E-3,-3.8168894E-4,-2.5335338E-3,-1.7425814E-3,-5.399971E-3,-4.1602803E-3,-1.0350147E-2,2.3119848E-3,-3.2880239E-3],"categories":[],"categories_nodes":[],"categories_segments":[],"categories_sizes":[],"default_left":[0,0,0,0,0,0,0,0,0,0,0,0,0,0,0,0,0,0,0,0,0,0,0,0,0,0,0,0,0,0,0,0,0,0,0,0,0,0,0,0,0,0,0,0,0,0,0,0,0,0,0,0,0,0,0,0,0,0,0,0,0],"id":5,"left_children":[1,3,5,7,9,11,13,15,17,19,21,23,25,27,29,31,33,35,37,39,41,43,45,47,49,51,53,-1,55,57,59,-1,-1,-1,-1,-1,-1,-1,-1,-1,-1,-1,-1,-1,-1,-1,-1,-1,-1,-1,-1,-1,-1,-1,-1,-1,-1,-1,-1,-1,-1],"loss_changes":[4.3591933E0,2.319306E0,1.6248574E0,7.049271E-1,8.147557E-1,9.403026E-1,6.0987306E-1,6.729019E-1,6.7676675E-1,7.976057E-1,7.421894E-1,1.0830922E0,1.6298561E0,1.9137776E-1,9.0906835E-1,4.4379413E-1,4.1768938E-1,7.062973E-2,3.3760858E-1,7.9673433E-1,8.347678E-1,6.348443E-1,4.908985E-1,1.0471313E0,9.309163E-1,7.5043154E-1,4.0495992E-1,0E0,2.4606347E-1,5.526676E-1,2.703492E-1,0E0,0E0,0E0,0E0,0E0,0E0,0E0,0E0,0E0,0E0,0E0,0E0,0E0,0E0,0E0,0E0,0E0,0E0,0E0,0E0,0E0,0E0,0E0,0E0,0E0,0E0,0E0,0E0,0E0,0E0],"parents":[2147483647,0,0,1,1,2,2,3,3,4,4,5,5,6,6,7,7,8,8,9,9,10,10,11,11,12,12,13,13,14,14,15,15,16,16,17,17,18,18,19,19,20,20,21,21,22,22,23,23,24,24,25,25,26,26,28,28,29,29,30,30],"right_children":[2,4,6,8,10,12,14,16,18,20,22,24,26,28,30,32,34,36,38,40,42,44,46,48,50,52,54,-1,56,58,60,-1,-1,-1,-1,-1,-1,-1,-1,-1,-1,-1,-1,-1,-1,-1,-1,-1,-1,-1,-1,-1,-1,-1,-1,-1,-1,-1,-1,-1,-1],"split_conditions":[2.9748744E-1,1.3670886E-1,1.2414141E-1,6.0355935E-2,5.3325165E-2,9.839034E-1,3.224663E-1,2.6132405E-2,-1.1586417E-1,1.7269632E0,6.169365E-1,5.0413895E-2,6.0355935E-2,2.261541E-1,4.2534533E-1,-1.6765054E-1,3.5960443E-2,1.8036073E-2,2.3731539E-1,9.839034E-1,1.5777938E-1,7.7882355E1,9.839034E-1,1.3113638E0,2.1458144E-1,7.996604E1,7.7252257E-1,7.838989E-4,9.718875E-1,2.5101392E-2,4.4527102E-2,8.707769E-4,8.551708E-5,-2.889633E-5,-3.8871856E-4,2.0746728E-3,2.481553E-4,-8.5387856E-4,-2.6628482E-3,-1.7634168E-4,1.1761194E-3,-1.3203345E-3,-1.819238E-4,-6.760449E-4,3.5075806E-3,-1.0277709E-3,-3.4213315E-3,5.7556135E-5,-1.8873044E-3,-1.2417575E-3,-4.230044E-3,6.5678345E-5,4.425965E-3,-3.8168894E-4,-2.5335338E-3,-1.7425814E-3,-5.399971E-3,-4.1602803E-3,-1.0350147E-2,2.3119848E-3,-3.2880239E-3],"split_indices":[2,3,20,5,5,14,8,8,8,6,6,5,5,19,19,8,5,12,19,14,19,10,14,6,19,10,16,0,11,7,5,0,0,0,0,0,0,0,0,0,0,0,0,0,0,0,0,0,0,0,0,0,0,0,0,0,0,0,0,0,0],"split_type":[0,0,0,0,0,0,0,0,0,0,0,0,0,0,0,0,0,0,0,0,0,0,0,0,0,0,0,0,0,0,0,0,0,0,0,0,0,0,0,0,0,0,0,0,0,0,0,0,0,0,0,0,0,0,0,0,0,0,0,0,0],"sum_hessian":[1.77769E5,1.75666E5,2.103E3,1.56793E5,1.8873E4,1.902E3,2.01E2,1.56311E5,4.82E2,1.6549E4,2.324E3,1.378E3,5.24E2,1.06E2,9.5E1,1.25761E5,3.055E4,8.6E1,3.96E2,1.4215E4,2.334E3,2.004E3,3.2E2,9.92E2,3.86E2,1.49E2,3.75E2,1.4E1,9.2E1,6.2E1,3.3E1,6.51E2,1.2511E5,2.7298E4,3.252E3,4.7E1,3.9E1,2.32E2,1.64E2,1.3813E4,4.02E2,1.134E3,1.2E3,1.972E3,3.2E1,1.7E2,1.5E2,4.71E2,5.21E2,1.81E2,2.05E2,6.2E1,8.7E1,2.6E2,1.15E2,6.8E1,2.4E1,2.7E1,3.5E1,1E1,2.3E1],"tree_param":{"num_deleted":"0","num_feature":"23","num_nodes":"61","size_leaf_vector":"1"}},{"base_weights":[1.590057E-5,1.5916489E-3,-2.5277298E-2,3.256718E-3,-3.301116E-3,-2.0294962E-2,-5.0446965E-2,4.3396824E-3,-1.9372435E-3,-2.7401089E-3,-4.2170096E-2,2.6106273E-3,-2.4486313E-2,-1.6310683E-1,-4.241641E-2,3.3271473E-2,4.1910433E-3,4.2036157E-3,-4.6430235E-3,-1.2314185E-3,-8.906642E-3,-6.914187E-2,-2.1939622E-2,-3.333893E-2,1.0166147E-2,-1.9925563E-2,-4.5511533E-2,-2.526425E-1,-9.156291E-2,-5.3027755E-4,-5.0407473E-2,1.5342878E-3,-0E0,9.799137E-5,2.0610588E-4,1.0258409E-3,1.0055228E-4,-7.2867965E-4,-8.888733E-5,-3.9563284E-4,-1.7695664E-5,-3.0692172E-4,6.8191235E-4,-1.5718917E-3,-5.3152572E-3,-4.511781E-4,-3.300407E-3,-0E0,-1.6100903E-3,2.2415584E-4,3.319056E-3,-7.9840893E-4,-2.7007484E-4,-1.857721E-3,-7.850395E-4,-5.046421E-3,-9.6889585E-3,2.6942985E-4,-4.5922785E-3,-1.3364907E-3,6.8533124E-4,-1.7750178E-3,-2.7542032E-5],"categories":[],"categories_nodes":[],"categories_segments":[],"categories_sizes":[],"default_left":[0,0,0,0,0,0,1,0,0,0,0,0,0,0,0,0,0,0,0,0,0,0,0,0,0,0,0,0,0,0,0,0,0,0,0,0,0,0,0,0,0,0,0,0,0,0,0,0,0,0,0,0,0,0,0,0,0,0,0,0,0,0,0],"id":6,"left_children":[1,3,5,7,9,11,13,15,17,19,21,23,25,27,29,31,33,35,37,39,41,43,45,47,49,51,53,55,57,59,61,-1,-1,-1,-1,-1,-1,-1,-1,-1,-1,-1,-1,-1,-1,-1,-1,-1,-1,-1,-1,-1,-1,-1,-1,-1,-1,-1,-1,-1,-1,-1,-1],"loss_changes":[7.074134E0,1.3616935E0,1.2972293E0,7.0178866E-1,9.2048144E-1,8.369224E-1,1.5250316E0,4.3999577E-1,3.5735333E-1,3.8808015E-1,3.1731153E-1,3.6253244E-1,6.976342E-1,6.662948E-1,5.317614E-1,3.1447154E-1,2.5337434E-1,1.6388276E-1,4.9027616E-1,2.5648195E-1,3.42816E-1,4.2907274E-1,1.9672638E-1,1.522688E-1,2.883725E-1,4.3803096E-1,4.0419412E-1,1.8747997E-1,4.1779375E-1,2.7071226E-1,5.7701755E-1,0E0,0E0,0E0,0E0,0E0,0E0,0E0,0E0,0E0,0E0,0E0,0E0,0E0,0E0,0E0,0E0,0E0,0E0,0E0,0E0,0E0,0E0,0E0,0E0,0E0,0E0,0E0,0E0,0E0,0E0,0E0,0E0],"parents":[2147483647,0,0,1,1,2,2,3,3,4,4,5,5,6,6,7,7,8,8,9,9,10,10,11,11,12,12,13,13,14,14,15,15,16,16,17,17,18,18,19,19,20,20,21,21,22,22,23,23,24,24,25,25,26,26,27,27,28,28,29,29,30,30],"right_children":[2,4,6,8,10,12,14,16,18,20,22,24,26,28,30,32,34,36,38,40,42,44,46,48,50,52,54,56,58,60,62,-1,-1,-1,-1,-1,-1,-1,-1,-1,-1,-1,-1,-1,-1,-1,-1,-1,-1,-1,-1,-1,-1,-1,-1,-1,-1,-1,-1,-1,-1,-1,-1],"split_conditions":[4.6941897E-1,2.6132405E-2,1.6058394E-1,1.3207547E-1,2.7608657E-1,-5.599913E-2,-3.3837777E-2,-1.6765054E-1,-8.9828765E-1,2.7489176E-1,1.01333946E-1,-5.582329E-1,9.7816825E-1,3.9741132E-1,2.2904247E-1,-4.577528E-1,5.7028115E-1,6.2222388E-3,-2.7578077E-1,-1.0408087E-1,9.8792756E-1,2.6329115E-1,9.678715E-1,3.1457994E-2,5.355027E-1,5.5374816E-2,9.856077E-2,3.365937E-2,9.134809E-1,-3.8965055E-1,1.3837644E-1,1.5342878E-3,-0E0,9.799137E-5,2.0610588E-4,1.0258409E-3,1.0055228E-4,-7.2867965E-4,-8.888733E-5,-3.9563284E-4,-1.7695664E-5,-3.0692172E-4,6.8191235E-4,-1.5718917E-3,-5.3152572E-3,-4.511781E-4,-3.300407E-3,-0E0,-1.6100903E-3,2.2415584E-4,3.319056E-3,-7.9840893E-4,-2.7007484E-4,-1.857721E-3,-7.850395E-4,-5.046421E-3,-9.6889585E-3,2.6942985E-4,-4.5922785E-3,-1.3364907E-3,6.8533124E-4,-1.7750178E-3,-2.7542032E-5],"split_indices":[4,8,1,4,22,8,20,8,6,4,21,18,4,19,6,16,14,7,21,4,13,4,14,7,19,7,8,7,14,6,22,0,0,0,0,0,0,0,0,0,0,0,0,0,0,0,0,0,0,0,0,0,0,0,0,0,0,0,0,0,0,0,0],"split_type":[0,0,0,0,0,0,0,0,0,0,0,0,0,0,0,0,0,0,0,0,0,0,0,0,0,0,0,0,0,0,0,0,0,0,0,0,0,0,0,0,0,0,0,0,0,0,0,0,0,0,0,0,0,0,0,0,0,0,0,0,0,0,0],"sum_hessian":[1.77551E5,1.67143E5,1.0408E4,1.2472E5,4.2423E4,8.693E3,1.715E3,1.03218E5,2.1502E4,4.1823E4,6E2,1.341E3,7.352E3,1.12E2,1.603E3,5.23E2,1.02695E5,6.565E3,1.4937E4,3.3616E4,8.207E3,2.54E2,3.46E2,2.3E2,1.111E3,6.047E3,1.305E3,4.8E1,6.4E1,2.59E2,1.344E3,3.41E2,1.82E2,7.6375E4,2.632E4,1.77E2,6.388E3,1.171E3,1.3766E4,1.703E3,3.1913E4,7.881E3,3.26E2,2.22E2,3.2E1,3.23E2,2.3E1,8.9E1,1.41E2,1.084E3,2.7E1,3.744E3,2.303E3,7.02E2,6.03E2,2.4E1,2.4E1,2.4E1,4E1,9.1E1,1.68E2,1.14E3,2.04E2],"tree_param":{"num_deleted":"0","num_feature":"23","num_nodes":"63","size_leaf_vector":"1"}},{"base_weights":[-2.4698675E-4,1.8426679E-3,-1.785769E-2,2.473046E-3,-1.0403289E-2,-1.4629606E-2,-4.295689E-2,3.4136064E-2,2.3411994E-3,-4.2817113E-3,-2.28111E-2,-5.9027657E-2,-1.3845E-2,-3.5371646E-2,-1.4910507E-1,5.0709285E-2,3.658167E-3,3.1548063E-3,-1.0259174E-3,-2.9832895E-3,-6.0968395E-2,-5.6737147E-2,-1.7054487E-2,3.858516E-2,-7.091513E-2,-2.8782268E-3,-1.669483E-2,-2.3236243E-2,-8.173958E-2,-2.531188E-1,-8.319668E-2,4.1837135E-4,1.7316559E-3,-7.8431464E-4,7.6652213E-4,1.0524956E-4,-2.1687069E-4,-5.6743106E-6,-4.2341102E-4,-1.5328862E-4,5.009624E-4,1.3054388E-5,-2.6071316E-3,-1.0967511E-3,-3.454625E-3,-4.3659325E-4,-1.8519808E-3,1.85558E-3,-0E0,-6.7276196E-3,-1.8236428E-3,-1.7843522E-4,6.906938E-4,-4.1354838E-4,-1.0363034E-3,1.4444144E-4,-1.2804787E-3,-4.9272156E-3,-1.0010222E-3,-3.3117505E-3,-8.66666E-3,9.2540786E-4,-3.5444736E-3],"categories":[],"categories_nodes":[],"categories_segments":[],"categories_sizes":[],"default_left":[0,0,0,0,0,0,0,0,0,0,0,0,0,0,0,0,0,0,1,0,0,0,0,0,0,0,0,0,0,0,0,0,0,0,0,0,0,0,0,0,0,0,0,0,0,0,0,0,0,0,0,0,0,0,0,0,0,0,0,0,0,0,0],"id":7,"left_children":[1,3,5,7,9,11,13,15,17,19,21,23,25,27,29,31,33,35,37,39,41,43,45,47,49,51,53,55,57,59,61,-1,-1,-1,-1,-1,-1,-1,-1,-1,-1,-1,-1,-1,-1,-1,-1,-1,-1,-1,-1,-1,-1,-1,-1,-1,-1,-1,-1,-1,-1,-1,-1],"loss_changes":[6.5486264E0,1.2268858E0,1.5229907E0,6.2770694E-1,5.87974E-1,5.746844E-1,1.704956E0,3.0957073E-1,4.1287124E-1,3.772638E-1,4.9240017E-1,3.4015608E-1,5.1189494E-1,1.1163661E0,9.1877365E-1,9.5666885E-2,1.461033E-1,4.4507313E-1,3.1934783E-1,2.1240595E-1,1.9182938E-1,4.1559017E-1,2.3689157E-1,2.6536047E-2,3.5850394E-1,2.6875377E-1,6.7216253E-1,8.729572E-1,1.6269295E0,2.0386863E-1,3.671379E-1,0E0,0E0,0E0,0E0,0E0,0E0,0E0,0E0,0E0,0E0,0E0,0E0,0E0,0E0,0E0,0E0,0E0,0E0,0E0,0E0,0E0,0E0,0E0,0E0,0E0,0E0,0E0,0E0,0E0,0E0,0E0,0E0],"parents":[2147483647,0,0,1,1,2,2,3,3,4,4,5,5,6,6,7,7,8,8,9,9,10,10,11,11,12,12,13,13,14,14,15,15,16,16,17,17,18,18,19,19,20,20,21,21,22,22,23,23,24,24,25,25,26,26,27,27,28,28,29,29,30,30],"right_children":[2,4,6,8,10,12,14,16,18,20,22,24,26,28,30,32,34,36,38,40,42,44,46,48,50,52,54,56,58,60,62,-1,-1,-1,-1,-1,-1,-1,-1,-1,-1,-1,-1,-1,-1,-1,-1,-1,-1,-1,-1,-1,-1,-1,-1,-1,-1,-1,-1,-1,-1,-1,-1],"split_conditions":[3.3545646E-1,8.326882E-2,4.5092008E-1,-1.6765054E-1,1.6807622E0,-9.379605E-2,1.2414141E-1,-4.1730487E-1,1.3207547E-1,5.4599553E-2,7.222524E-2,2.951049E1,4.4827587E1,1.4573445E0,3.791675E-1,1.5214322E-2,1.617647E1,2.2192279E-1,3.8941704E-2,1.4198056E0,8.817635E-1,9.4388777E-1,9.9596775E-1,-2.6210457E-1,1.8036073E-2,4.3589745E1,7.322583E-1,9.7816825E-1,9.294355E-1,2.5355734E-2,9.0945673E-1,4.1837135E-4,1.7316559E-3,-7.8431464E-4,7.6652213E-4,1.0524956E-4,-2.1687069E-4,-5.6743106E-6,-4.2341102E-4,-1.5328862E-4,5.009624E-4,1.3054388E-5,-2.6071316E-3,-1.0967511E-3,-3.454625E-3,-4.3659325E-4,-1.8519808E-3,1.85558E-3,-0E0,-6.7276196E-3,-1.8236428E-3,-1.7843522E-4,6.906938E-4,-4.1354838E-4,-1.0363034E-3,1.4444144E-4,-1.2804787E-3,-4.9272156E-3,-1.0010222E-3,-3.3117505E-3,-8.66666E-3,9.2540786E-4,-3.5444736E-3],"split_indices":[4,8,9,8,6,0,20,16,4,5,19,10,10,6,19,7,10,21,20,6,13,13,12,16,13,10,4,4,14,7,14,0,0,0,0,0,0,0,0,0,0,0,0,0,0,0,0,0,0,0,0,0,0,0,0,0,0,0,0,0,0,0,0],"split_type":[0,0,0,0,0,0,0,0,0,0,0,0,0,0,0,0,0,0,0,0,0,0,0,0,0,0,0,0,0,0,0,0,0,0,0,0,0,0,0,0,0,0,0,0,0,0,0,0,0,0,0,0,0,0,0,0,0,0,0,0,0,0,0],"sum_hessian":[1.77905E5,1.5903E5,1.8875E4,1.51253E5,7.777E3,1.6729E4,2.146E3,6.23E2,1.5063E5,5.214E3,2.563E3,2.87E2,1.6442E4,2.005E3,1.41E2,4.01E2,2.22E2,1.2134E5,2.929E4,5.1E3,1.14E2,3.68E2,2.195E3,3E1,2.57E2,3.399E3,1.3043E4,1.592E3,4.13E2,5.3E1,8.8E1,6.7E1,3.34E2,9.2E1,1.3E2,1.17355E5,3.985E3,2.7538E4,1.752E3,4.608E3,4.92E2,3.3E1,8.1E1,2.76E2,9.2E1,2.082E3,1.13E2,1.8E1,1.2E1,1.4E1,2.43E2,3.043E3,3.56E2,1.1221E4,1.822E3,6.5E2,9.42E2,1.51E2,2.62E2,1.2E1,4.1E1,2E1,6.8E1],"tree_param":{"num_deleted":"0","num_feature":"23","num_nodes":"63","size_leaf_vector":"1"}},{"base_weights":[-1.2879667E-7,1.421135E-3,-2.4320241E-2,2.891763E-3,-4.1364995E-3,-2.1322552E-2,-7.2557114E-2,1.2542443E-2,2.4725348E-3,-3.5009112E-3,-4.023661E-2,8.283851E-3,-2.5499923E-2,-3.80649E-2,-1.4871073E-1,1.427234E-2,-8.698692E-3,3.2465346E-3,-1.7820435E-3,-5.0665714E-2,-3.235475E-3,-2.9331097E-2,-1.0581606E-1,5.9440476E-3,4.7273976E-3,-2.1386353E-2,-4.844955E-2,5.0950395E-3,-4.6347268E-2,-2.5687146E-1,-1.0367238E-1,1.746765E-4,6.1626214E-4,1.3435922E-3,-4.3467514E-4,1.0831331E-4,-1.12363945E-4,2.5032484E-4,-1.1758479E-4,-4.1680974E-3,-1.0431986E-3,-5.1115215E-4,-7.42741E-5,-1.6388759E-3,-4.0852415E-4,-4.861134E-4,-4.1155517E-3,-1.3147595E-3,2.6599612E-4,-2.5939513E-3,-5.989486E-4,-2.3303065E-3,-8.8246854E-4,-5.935017E-4,-2.6648878E-3,-8.702173E-3,-5.57719E-3,-5.5877217E-3,-1.063914E-3],"categories":[],"categories_nodes":[],"categories_segments":[],"categories_sizes":[],"default_left":[0,0,0,0,0,0,0,0,0,0,0,0,0,0,0,0,0,0,0,0,0,0,0,0,0,0,0,0,0,0,0,0,0,0,0,0,0,0,0,0,0,0,0,0,0,0,0,0,0,0,0,0,0,0,0,0,0,0,0],"id":8,"left_children":[1,3,5,7,9,11,13,15,17,19,21,23,25,27,29,31,33,35,37,39,41,43,45,47,-1,49,51,-1,53,55,57,-1,-1,-1,-1,-1,-1,-1,-1,-1,-1,-1,-1,-1,-1,-1,-1,-1,-1,-1,-1,-1,-1,-1,-1,-1,-1,-1,-1],"loss_changes":[6.177553E0,1.3794194E0,1.4159694E0,5.38522E-1,8.055288E-1,1.1513858E0,1.486018E0,2.0450586E-1,4.2145747E-1,4.288263E-1,4.182095E-1,3.8338485E-1,7.6119184E-1,6.8083894E-1,8.044214E-1,2.6923263E-1,1.258368E-1,2.7547777E-1,4.2539757E-1,2.471427E-1,3.598257E-1,2.0073447E-1,2.2137743E-1,1.613972E-1,0E0,6.2728786E-1,6.7349386E-1,0E0,4.2072338E-1,1.8637419E-2,6.922473E-1,0E0,0E0,0E0,0E0,0E0,0E0,0E0,0E0,0E0,0E0,0E0,0E0,0E0,0E0,0E0,0E0,0E0,0E0,0E0,0E0,0E0,0E0,0E0,0E0,0E0,0E0,0E0,0E0],"parents":[2147483647,0,0,1,1,2,2,3,3,4,4,5,5,6,6,7,7,8,8,9,9,10,10,11,11,12,12,13,13,14,14,15,15,16,16,17,17,18,18,19,19,20,20,21,21,22,22,23,23,25,25,26,26,28,28,29,29,30,30],"right_children":[2,4,6,8,10,12,14,16,18,20,22,24,26,28,30,32,34,36,38,40,42,44,46,48,-1,50,52,-1,54,56,58,-1,-1,-1,-1,-1,-1,-1,-1,-1,-1,-1,-1,-1,-1,-1,-1,-1,-1,-1,-1,-1,-1,-1,-1,-1,-1,-1,-1],"split_conditions":[4.8811817E-1,3.4439363E-2,2.1272902E0,-1.3865052E-1,2.7608657E-1,-5.9508346E-2,4.543072E-1,-6.995885E-2,1.5442093E-1,-7.884318E-2,9.9744245E-2,9.558233E-1,1.1115152E0,1.0491616E-2,9.7987926E-1,5.392354E-1,5.62249E-2,8.116233E-1,-8E-2,3.1582305E-1,-4.303484E-3,1.01333946E-1,1.4157894E-1,6.012024E-3,4.7273976E-3,-9.379605E-2,6.902975E-2,5.0950395E-3,9.215292E-1,1.2555454E0,6.610337E-2,1.746765E-4,6.1626214E-4,1.3435922E-3,-4.3467514E-4,1.0831331E-4,-1.12363945E-4,2.5032484E-4,-1.1758479E-4,-4.1680974E-3,-1.0431986E-3,-5.1115215E-4,-7.42741E-5,-1.6388759E-3,-4.0852415E-4,-4.861134E-4,-4.1155517E-3,-1.3147595E-3,2.6599612E-4,-2.5939513E-3,-5.989486E-4,-2.3303065E-3,-8.8246854E-4,-5.935017E-4,-2.6648878E-3,-8.702173E-3,-5.57719E-3,-5.5877217E-3,-1.063914E-3],"split_indices":[4,8,6,9,22,8,3,3,4,0,0,11,4,7,13,14,11,13,3,6,9,21,9,13,0,0,7,0,14,21,22,0,0,0,0,0,0,0,0,0,0,0,0,0,0,0,0,0,0,0,0,0,0,0,0,0,0,0,0],"split_type":[0,0,0,0,0,0,0,0,0,0,0,0,0,0,0,0,0,0,0,0,0,0,0,0,0,0,0,0,0,0,0,0,0,0,0,0,0,0,0,0,0,0,0,0,0,0,0,0,0,0,0,0,0,0,0,0,0,0,0],"sum_hessian":[1.78653E5,1.68786E5,9.867E3,1.33483E5,3.5303E4,9.293E3,5.74E2,5.546E3,1.27937E5,3.4696E4,6.07E2,1.146E3,8.147E3,3.97E2,1.77E2,5.133E3,4.13E2,1.08265E5,1.9672E4,1.91E2,3.4505E4,5.23E2,8.4E1,1.13E3,1.6E1,6.914E3,1.233E3,1.4E1,3.83E2,5E1,1.27E2,2.194E3,2.939E3,3.8E1,3.75E2,1.02923E5,5.342E3,3.42E3,1.6252E4,2.7E1,1.64E2,1.792E3,3.2713E4,1.97E2,3.26E2,2.3E1,6.1E1,6E1,1.07E3,1.45E2,6.769E3,4.83E2,7.5E2,2.38E2,1.45E2,3.1E1,1.9E1,5.6E1,7.1E1],"tree_param":{"num_deleted":"0","num_feature":"23","num_nodes":"59","size_leaf_vector":"1"}},{"base_weights":[-1.972721E-5,1.4485772E-3,-2.5233984E-2,2.4294741E-3,-5.4876492E-3,-2.2174E-2,-7.772138E-2,2.5469007E-3,-3.3564746E-2,-4.7209207E-3,-3.8798984E-2,6.62499E-3,-2.629928E-2,-3.9446592E-2,-1.3395637E-1,1.6456129E-2,2.3199075E-3,-6.6572675E-3,-5.4586712E-2,-3.6160098E-3,-2.9841412E-2,-5.1459644E-2,-2.364797E-3,-3.8849473E-2,1.4706672E-2,-2.346853E-2,-5.9592582E-2,-4.677876E-2,4.8904642E-3,-2.38436E-1,-9.704072E-2,8.820618E-4,2.3731732E-4,9.330087E-5,-2.4406663E-5,8.120592E-5,-3.6033283E-3,-1.3805709E-3,-3.7410334E-3,-1.235532E-4,1.8824084E-3,-3.596157E-4,-1.8815282E-3,-1.1854767E-3,-3.8236042E-3,-2.4385233E-3,1.0216051E-3,-3.0874717E-3,-6.3391146E-4,3.7361946E-4,3.699586E-3,-2.5004377E-3,-6.6872616E-4,-1.3509407E-3,-4.0370105E-3,-5.518422E-4,-2.77322E-3,-7.943208E-3,-2.99773E-3,-5.524687E-3,-1.5255564E-3],"categories":[],"categories_nodes":[],"categories_segments":[],"categories_sizes":[],"default_left":[0,0,0,0,0,0,0,0,0,0,0,0,0,0,0,0,0,0,0,0,0,0,0,0,0,0,0,0,0,0,0,0,0,0,0,0,0,0,0,0,0,0,0,0,0,0,0,0,0,0,0,0,0,0,0,0,0,0,0,0,0],"id":9,"left_children":[1,3,5,7,9,11,13,15,17,19,21,23,25,27,29,31,33,35,37,39,41,43,45,47,49,51,53,55,-1,57,59,-1,-1,-1,-1,-1,-1,-1,-1,-1,-1,-1,-1,-1,-1,-1,-1,-1,-1,-1,-1,-1,-1,-1,-1,-1,-1,-1,-1,-1,-1],"loss_changes":[6.585037E0,1.1428351E0,1.5603428E0,6.1920124E-1,5.268146E-1,1.101315E0,1.1332049E0,4.6137702E-1,2.6276064E-1,5.611013E-1,2.0899147E-1,4.2336634E-1,7.5330305E-1,4.7400647E-1,7.76412E-1,2.5590628E-1,3.5771286E-1,2.372933E-1,1.363796E-1,6.441794E-1,4.9247062E-1,2.8959113E-1,3.6100632E-1,1.818096E-1,2.2588786E-1,5.14061E-1,6.648555E-1,3.915894E-1,0E0,1.3771701E-1,6.1898434E-1,0E0,0E0,0E0,0E0,0E0,0E0,0E0,0E0,0E0,0E0,0E0,0E0,0E0,0E0,0E0,0E0,0E0,0E0,0E0,0E0,0E0,0E0,0E0,0E0,0E0,0E0,0E0,0E0,0E0,0E0],"parents":[2147483647,0,0,1,1,2,2,3,3,4,4,5,5,6,6,7,7,8,8,9,9,10,10,11,11,12,12,13,13,14,14,15,15,16,16,17,17,18,18,19,19,20,20,21,21,22,22,23,23,24,24,25,25,26,26,27,27,29,29,30,30],"right_children":[2,4,6,8,10,12,14,16,18,20,22,24,26,28,30,32,34,36,38,40,42,44,46,48,50,52,54,56,-1,58,60,-1,-1,-1,-1,-1,-1,-1,-1,-1,-1,-1,-1,-1,-1,-1,-1,-1,-1,-1,-1,-1,-1,-1,-1,-1,-1,-1,-1,-1,-1],"split_conditions":[4.8811817E-1,2.341629E-1,2.1272902E0,2.7608657E-1,1.841617E-1,-6.0803473E-2,4.0790606E-1,-1.17588766E-1,1.1111111E-1,5.6107596E-2,8.817635E-1,-5.582329E-1,1.3315461E0,3.224663E-1,9.7987926E-1,-4.987126E-1,7.57515E-1,-4.008016E-3,4.9319825E-1,9.8792756E-1,5.9130436E1,3.683747E-2,1.9797873E-2,-7.010223E-2,9.558233E-1,-9.379605E-2,8.3901306E1,9.678715E-1,4.8904642E-3,1.0018975E-1,6.378213E-1,8.820618E-4,2.3731732E-4,9.330087E-5,-2.4406663E-5,8.120592E-5,-3.6033283E-3,-1.3805709E-3,-3.7410334E-3,-1.235532E-4,1.8824084E-3,-3.596157E-4,-1.8815282E-3,-1.1854767E-3,-3.8236042E-3,-2.4385233E-3,1.0216051E-3,-3.0874717E-3,-6.3391146E-4,3.7361946E-4,3.699586E-3,-2.5004377E-3,-6.6872616E-4,-1.3509407E-3,-4.0370105E-3,-5.518422E-4,-2.77322E-3,-7.943208E-3,-2.99773E-3,-5.524687E-3,-1.5255564E-3],"split_indices":[4,4,6,22,22,8,3,1,3,5,14,18,4,8,13,16,12,18,17,14,10,5,7,0,11,0,10,11,0,0,16,0,0,0,0,0,0,0,0,0,0,0,0,0,0,0,0,0,0,0,0,0,0,0,0,0,0,0,0,0,0],"split_type":[0,0,0,0,0,0,0,0,0,0,0,0,0,0,0,0,0,0,0,0,0,0,0,0,0,0,0,0,0,0,0,0,0,0,0,0,0,0,0,0,0,0,0,0,0,0,0,0,0,0,0,0,0,0,0,0,0,0,0,0,0],"sum_hessian":[1.77801E5,1.68014E5,9.787E3,1.47211E5,2.0803E4,9.251E3,5.36E2,1.46736E5,4.75E2,2.0339E4,4.64E2,1.156E3,8.095E3,3.21E2,2.15E2,2.348E3,1.44388E5,2.11E2,2.64E2,1.9487E4,8.52E2,3.42E2,1.22E2,1.72E2,9.84E2,7.465E3,6.3E2,3.11E2,1E1,5.4E1,1.61E2,9.28E2,1.42E3,1.15337E5,2.9051E4,1.95E2,1.6E1,2.38E2,2.6E1,1.9343E4,1.44E2,5.55E2,2.97E2,2.98E2,4.4E1,3.9E1,8.3E1,3.5E1,1.37E2,9.66E2,1.8E1,1.41E2,7.324E3,5.3E2,1E2,1.94E2,1.17E2,4.4E1,1E1,5.4E1,1.07E2],"tree_param":{"num_deleted":"0","num_feature":"23","num_nodes":"61","size_leaf_vector":"1"}},{"base_weights":[1.8413816E-4,1.5637572E-3,-2.1853333E-2,3.0444218E-3,-3.0801233E-3,6.0523874E-3,-2.557128E-2,2.5181985E-2,2.8029194E-3,-2.269932E-3,-2.8012523E-2,3.2454152E-3,1.5523252E-1,-2.349038E-2,-9.122031E-2,1.741967E-2,4.058422E-2,3.001739E-3,-1.6485892E-2,2.886934E-3,-3.8896843E-3,1.6189905E-2,-3.351352E-2,-3.572429E-2,1.1119959E-2,7.838984E-3,1.1020531E-3,-1.9107228E-2,-5.009756E-2,-1.9667527E-2,-1.6607788E-1,-1.3212382E-3,6.366927E-4,9.413039E-4,1.9243232E-3,1.0369476E-4,-5.0960414E-5,1.8490857E-3,-5.9021235E-4,1.8199704E-3,6.998394E-5,-5.409938E-5,-2.4497227E-4,-2.9722834E-4,3.3196707E-3,-4.9910466E-3,-9.590846E-4,-1.9043228E-3,6.662703E-6,-1.2957802E-4,7.6480024E-4,-8.4773207E-4,-2.3379462E-4,-5.483336E-4,-1.8914652E-3,-1.8117729E-3,1.7319643E-3,-6.4158766E-3,-2.9275566E-3],"categories":[],"categories_nodes":[],"categories_segments":[],"categories_sizes":[],"default_left":[0,0,0,0,0,0,0,0,0,0,0,0,0,0,0,0,0,0,0,0,0,0,0,0,0,0,0,0,0,0,0,0,0,0,0,0,0,0,0,0,0,0,0,0,0,0,0,0,0,0,0,0,0,0,0,0,0,0,0],"id":10,"left_children":[1,3,5,7,9,11,13,15,17,19,21,23,25,27,29,31,33,35,37,39,41,43,45,47,49,-1,-1,51,53,55,57,-1,-1,-1,-1,-1,-1,-1,-1,-1,-1,-1,-1,-1,-1,-1,-1,-1,-1,-1,-1,-1,-1,-1,-1,-1,-1,-1,-1],"loss_changes":[5.4006743E0,1.1499255E0,1.0878706E0,6.7515695E-1,8.1329155E-1,4.978666E-1,1.2483792E0,1.5656841E-1,4.7983593E-1,3.2710868E-1,3.1059855E-1,3.6832726E-1,2.3710817E-1,1.0367169E0,1.4886265E0,2.120775E-1,8.648574E-2,2.6563096E-1,3.1454465E-1,2.9269615E-1,2.6490095E-1,3.5385096E-1,2.0664632E-1,2.0686224E-1,2.2569484E-1,0E0,0E0,7.928343E-1,5.112059E-1,4.6395838E-1,3.963728E-1,0E0,0E0,0E0,0E0,0E0,0E0,0E0,0E0,0E0,0E0,0E0,0E0,0E0,0E0,0E0,0E0,0E0,0E0,0E0,0E0,0E0,0E0,0E0,0E0,0E0,0E0,0E0,0E0],"parents":[2147483647,0,0,1,1,2,2,3,3,4,4,5,5,6,6,7,7,8,8,9,9,10,10,11,11,12,12,13,13,14,14,15,15,16,16,17,17,18,18,19,19,20,20,21,21,22,22,23,23,24,24,27,27,28,28,29,29,30,30],"right_children":[2,4,6,8,10,12,14,16,18,20,22,24,26,28,30,32,34,36,38,40,42,44,46,48,50,-1,-1,52,54,56,58,-1,-1,-1,-1,-1,-1,-1,-1,-1,-1,-1,-1,-1,-1,-1,-1,-1,-1,-1,-1,-1,-1,-1,-1,-1,-1,-1,-1],"split_conditions":[4.6941897E-1,1.4199954E-1,-5.9508346E-2,-1.8629186E-1,1.486903E-1,9.558233E-1,1.2414141E-1,8.453972E-3,1.06141075E-1,1.7888202E-1,1.5002447E0,-5.4108214E-1,-1.3556221E-1,1.1115152E0,9.4388777E-1,-1.4786707E-1,3.55897E-2,3.4719255E-2,-3.735792E-1,-7.884318E-2,2.866521E-1,7.885677E-1,-2.7345669E-2,4.819277E-2,-1.0942957E0,7.838984E-3,1.1020531E-3,4.968394E-2,1.8036073E-2,9.630557E-2,4.2534533E-1,-1.3212382E-3,6.366927E-4,9.413039E-4,1.9243232E-3,1.0369476E-4,-5.0960414E-5,1.8490857E-3,-5.9021235E-4,1.8199704E-3,6.998394E-5,-5.409938E-5,-2.4497227E-4,-2.9722834E-4,3.3196707E-3,-4.9910466E-3,-9.590846E-4,-1.9043228E-3,6.662703E-6,-1.2957802E-4,7.6480024E-4,-8.4773207E-4,-2.3379462E-4,-5.483336E-4,-1.8914652E-3,-1.8117729E-3,1.7319643E-3,-6.4158766E-3,-2.9275566E-3],"split_indices":[4,4,8,9,22,11,20,22,8,17,6,18,21,4,11,1,7,20,6,0,4,21,9,12,6,0,0,7,18,7,19,0,0,0,0,0,0,0,0,0,0,0,0,0,0,0,0,0,0,0,0,0,0,0,0,0,0,0,0],"split_type":[0,0,0,0,0,0,0,0,0,0,0,0,0,0,0,0,0,0,0,0,0,0,0,0,0,0,0,0,0,0,0,0,0,0,0,0,0,0,0,0,0,0,0,0,0,0,0,0,0,0,0,0,0,0,0,0,0,0,0],"sum_hessian":[1.77699E5,1.67235E5,1.0464E4,1.26821E5,4.0414E4,1.227E3,9.237E3,1.363E3,1.25458E5,3.9147E4,1.267E3,1.206E3,2.1E1,8.956E3,2.81E2,9.12E2,4.51E2,1.24184E5,1.274E3,9.342E3,2.9805E4,1.38E2,1.129E3,2E2,1.006E3,1E1,1.1E1,7.694E3,1.262E3,1.45E2,1.36E2,5.1E1,8.61E2,3.29E2,1.22E2,1.13249E5,1.0935E4,4.8E1,1.226E3,8.6E1,9.256E3,2.0048E4,9.757E3,1.08E2,3E1,1.1E1,1.118E3,1.14E2,8.6E1,4.82E2,5.24E2,4.248E3,3.446E3,3.68E2,8.94E2,9.6E1,4.9E1,7.8E1,5.8E1],"tree_param":{"num_deleted":"0","num_feature":"23","num_nodes":"59","size_leaf_vector":"1"}},{"base_weights":[-1.3737926E-4,9.6859096E-4,-1.9427024E-2,2.1135889E-3,-4.1886396E-3,-1.6259687E-2,-5.8458377E-2,2.5481777E-3,-8.56099E-3,-3.910941E-3,-5.5447705E-2,-1.0788637E-2,-3.106864E-2,-5.03109E-2,-2.786199E-1,1.0765601E-2,2.051308E-3,-7.068983E-3,-5.861868E-2,-1.1267099E-3,-7.5234147E-3,-1.5661053E-2,-9.5784806E-2,-1.8538492E-2,-1.57288E-3,-8.7278165E-2,-2.6906876E-2,-3.2291424E-2,-1.13812774E-1,-1.04303565E-2,-4.5008687E-3,1.06508276E-4,5.5219926E-4,8.406467E-5,-1.1003806E-4,-3.4119774E-4,6.883466E-5,-1.113133E-3,-3.366401E-3,-1.2167175E-5,-6.122937E-4,-2.9579294E-4,1.4540466E-4,-3.6567764E-3,1.9389936E-5,-5.18027E-3,-1.4467089E-3,-0E0,-8.9976506E-4,1.5061278E-3,-1.4872417E-4,-1.7718214E-3,-5.372132E-3,-2.36782E-3,-6.9545856E-4,-1.6748046E-3,-0E0,-1.2644808E-3,-4.7324453E-3],"categories":[],"categories_nodes":[],"categories_segments":[],"categories_sizes":[],"default_left":[0,0,0,0,0,0,0,0,0,0,0,0,0,0,0,0,0,0,0,0,0,0,0,0,0,0,0,0,0,0,0,0,0,0,0,0,0,0,0,0,0,0,0,0,0,0,0,0,0,0,0,0,0,0,0,0,0,0,0],"id":11,"left_children":[1,3,5,7,9,11,13,15,17,19,21,23,25,27,29,31,33,35,37,39,41,43,45,47,49,51,53,55,57,-1,-1,-1,-1,-1,-1,-1,-1,-1,-1,-1,-1,-1,-1,-1,-1,-1,-1,-1,-1,-1,-1,-1,-1,-1,-1,-1,-1,-1,-1],"loss_changes":[3.783084E0,9.896359E-1,1.1803598E0,6.3584286E-1,4.2713332E-1,7.1639967E-1,1.2428033E0,5.369607E-1,3.9318663E-1,3.0366144E-1,2.4734557E-1,4.6248037E-1,5.4649734E-1,7.769823E-1,1.20075464E-1,4.1150916E-1,5.3381866E-1,2.1075118E-1,1.5732116E-1,2.3592103E-1,3.8097554E-1,1.5772147E-1,2.5848752E-1,7.5063074E-1,5.176023E-1,3.87807E-1,4.20653E-1,4.144913E-1,4.5194244E-1,0E0,0E0,0E0,0E0,0E0,0E0,0E0,0E0,0E0,0E0,0E0,0E0,0E0,0E0,0E0,0E0,0E0,0E0,0E0,0E0,0E0,0E0,0E0,0E0,0E0,0E0,0E0,0E0,0E0,0E0],"parents":[2147483647,0,0,1,1,2,2,3,3,4,4,5,5,6,6,7,7,8,8,9,9,10,10,11,11,12,12,13,13,14,14,15,15,16,16,17,17,18,18,19,19,20,20,21,21,22,22,23,23,24,24,25,25,26,26,27,27,28,28],"right_children":[2,4,6,8,10,12,14,16,18,20,22,24,26,28,30,32,34,36,38,40,42,44,46,48,50,52,54,56,58,-1,-1,-1,-1,-1,-1,-1,-1,-1,-1,-1,-1,-1,-1,-1,-1,-1,-1,-1,-1,-1,-1,-1,-1,-1,-1,-1,-1,-1,-1],"split_conditions":[2.2996017E-1,8.188324E-2,6.3118756E-1,2.0674959E-1,1.3861701E-1,8.306952E-1,5.348314E-1,-1.2461019E-1,1.14898756E-1,3.05143E-1,-3.9746117E-2,4.968394E-2,6.793587E-1,1.6733838E-2,1.1749927E-1,2.7210206E-2,3.3196293E-2,2.446864E-1,3.2532865E-1,5.3325165E-2,2.739153E-1,9.056225E-1,9.0484284E-2,2.6170189E-2,8.673608E-2,3.7746005E-2,5.1678255E-2,3.162326E-1,6.6494846E-1,-1.04303565E-2,-4.5008687E-3,1.06508276E-4,5.5219926E-4,8.406467E-5,-1.1003806E-4,-3.4119774E-4,6.883466E-5,-1.113133E-3,-3.366401E-3,-1.2167175E-5,-6.122937E-4,-2.9579294E-4,1.4540466E-4,-3.6567764E-3,1.9389936E-5,-5.18027E-3,-1.4467089E-3,-0E0,-8.9976506E-4,1.5061278E-3,-1.4872417E-4,-1.7718214E-3,-5.372132E-3,-2.36782E-3,-6.9545856E-4,-1.6748046E-3,-0E0,-1.2644808E-3,-4.7324453E-3],"split_indices":[9,9,9,21,7,16,17,9,8,17,8,7,14,22,7,5,7,19,17,5,21,14,3,7,17,7,3,17,3,0,0,0,0,0,0,0,0,0,0,0,0,0,0,0,0,0,0,0,0,0,0,0,0,0,0,0,0,0,0],"split_type":[0,0,0,0,0,0,0,0,0,0,0,0,0,0,0,0,0,0,0,0,0,0,0,0,0,0,0,0,0,0,0,0,0,0,0,0,0,0,0,0,0,0,0,0,0,0,0,0,0,0,0,0,0,0,0,0,0,0,0],"sum_hessian":[1.7724E5,1.67625E5,9.615E3,1.37187E5,3.0438E4,8.897E3,7.18E2,1.3183E5,5.357E3,3.0277E4,1.61E2,6.503E3,2.394E3,6.94E2,2.4E1,7.504E3,1.24326E5,5.205E3,1.52E2,1.7115E4,1.3162E4,8.3E1,7.8E1,3.526E3,2.977E3,1.62E2,2.232E3,5.43E2,1.51E2,1.4E1,1E1,3.867E3,3.637E3,1.09914E5,1.4412E4,3.573E3,1.632E3,1.11E2,4.1E1,1.6504E4,6.11E2,1.1078E4,2.084E3,1.1E1,7.2E1,2.8E1,5E1,1.345E3,2.181E3,1.8E2,2.797E3,1.26E2,3.6E1,1.46E2,2.086E3,3.14E2,2.29E2,5.9E1,9.2E1],"tree_param":{"num_deleted":"0","num_feature":"23","num_nodes":"59","size_leaf_vector":"1"}},{"base_weights":[-4.710122E-5,1.8585455E-3,-1.60919E-2,2.4671403E-3,-5.794623E-3,-1.4791695E-2,-7.4993156E-2,1.0733252E-2,2.0582299E-3,9.005119E-2,-6.378206E-3,2.967863E-3,-1.7432181E-2,-1.01946734E-1,1.4777233E-2,3.7234835E-3,1.688879E-2,2.3444043E-3,-5.469314E-3,6.7331484E-3,5.0660882E-2,-5.1902737E-3,-3.7078273E-2,5.112352E-3,-3.7956186E-2,-8.09783E-3,-2.4229497E-2,-1.3638304E-2,-1.2822424E-1,1.3334975E-1,-5.93945E-2,2.1894551E-4,-1.364421E-4,3.101823E-4,1.0676875E-3,9.055139E-5,-1.6545193E-5,-2.1562615E-4,1.1219545E-3,4.0158728E-4,2.9763614E-3,-1.3415117E-4,-1.4468336E-3,-7.318046E-4,-2.6864687E-3,3.0762003E-5,9.768974E-4,4.146476E-4,-1.4368986E-3,-4.5742572E-4,2.7931944E-4,-6.0540513E-4,-1.3001647E-3,-1.0264459E-3,2.9468643E-3,1.0134039E-3,-4.233493E-3,4.9963983E-4,8.9017665E-3,-2.8801325E-4,-5.844923E-3],"categories":[],"categories_nodes":[],"categories_segments":[],"categories_sizes":[],"default_left":[0,0,0,0,0,0,0,0,0,0,0,0,0,0,0,0,0,0,0,0,0,0,0,0,0,0,0,0,0,0,0,0,0,0,0,0,0,0,0,0,0,0,0,0,0,0,0,0,0,0,0,0,0,0,0,0,0,0,0,0,0],"id":12,"left_children":[1,3,5,7,9,11,13,15,17,19,21,23,25,27,29,31,33,35,37,-1,39,41,43,45,47,49,51,53,55,57,59,-1,-1,-1,-1,-1,-1,-1,-1,-1,-1,-1,-1,-1,-1,-1,-1,-1,-1,-1,-1,-1,-1,-1,-1,-1,-1,-1,-1,-1,-1],"loss_changes":[5.4527373E0,7.4191064E-1,1.4398718E0,4.9770284E-1,6.4814514E-1,8.703003E-1,9.950142E-1,2.9763126E-1,3.0276048E-1,3.3166832E-1,4.2074335E-1,2.070099E-1,1.0202494E0,7.1270967E-1,8.4202033E-1,9.6612245E-2,4.4710743E-1,2.6480132E-1,3.758421E-1,0E0,8.87568E-2,3.4174445E-1,2.732861E-1,2.521777E-1,6.428866E-2,8.478465E-1,7.1465015E-1,1.672957E-1,5.1885176E-1,6.691309E-1,3.6883387E-1,0E0,0E0,0E0,0E0,0E0,0E0,0E0,0E0,0E0,0E0,0E0,0E0,0E0,0E0,0E0,0E0,0E0,0E0,0E0,0E0,0E0,0E0,0E0,0E0,0E0,0E0,0E0,0E0,0E0,0E0],"parents":[2147483647,0,0,1,1,2,2,3,3,4,4,5,5,6,6,7,7,8,8,9,9,10,10,11,11,12,12,13,13,14,14,15,15,16,16,17,17,18,18,20,20,21,21,22,22,23,23,24,24,25,25,26,26,27,27,28,28,29,29,30,30],"right_children":[2,4,6,8,10,12,14,16,18,20,22,24,26,28,30,32,34,36,38,-1,40,42,44,46,48,50,52,54,56,58,60,-1,-1,-1,-1,-1,-1,-1,-1,-1,-1,-1,-1,-1,-1,-1,-1,-1,-1,-1,-1,-1,-1,-1,-1,-1,-1,-1,-1,-1,-1],"split_conditions":[3.3545646E-1,6.84058E-2,8.9993805E1,-1.2879801E-1,5.3703705E1,-5.260919E-2,9.678715E-1,2.62122E-2,2.2192279E-1,2.7999124E-1,2.7608657E-1,9.231418E-1,3.816036E-2,3.7084398E-1,6.0355935E-2,-1.3027976E-1,1.5713798E-3,1.3207547E-1,4.5849714E-2,6.7331484E-3,7.335362E-2,5.3325165E-2,9.9596775E-1,-1.5037594E-2,6.59297E-2,8.116233E-1,9.7816825E-1,9.215292E-1,-1.966665E-2,9.839034E-1,8.270871E-1,2.1894551E-4,-1.364421E-4,3.101823E-4,1.0676875E-3,9.055139E-5,-1.6545193E-5,-2.1562615E-4,1.1219545E-3,4.0158728E-4,2.9763614E-3,-1.3415117E-4,-1.4468336E-3,-7.318046E-4,-2.6864687E-3,3.0762003E-5,9.768974E-4,4.146476E-4,-1.4368986E-3,-4.5742572E-4,2.7931944E-4,-6.0540513E-4,-1.3001647E-3,-1.0264459E-3,2.9468643E-3,1.0134039E-3,-4.233493E-3,4.9963983E-4,8.9017665E-3,-2.8801325E-4,-5.844923E-3],"split_indices":[4,8,10,9,10,8,14,5,21,16,22,16,5,3,5,4,22,4,5,0,22,5,12,1,17,14,4,14,22,14,16,0,0,0,0,0,0,0,0,0,0,0,0,0,0,0,0,0,0,0,0,0,0,0,0,0,0,0,0,0,0],"split_type":[0,0,0,0,0,0,0,0,0,0,0,0,0,0,0,0,0,0,0,0,0,0,0,0,0,0,0,0,0,0,0,0,0,0,0,0,0,0,0,0,0,0,0,0,0,0,0,0,0,0,0,0,0,0,0,0,0,0,0,0,0],"sum_hessian":[1.78287E5,1.59355E5,1.8932E4,1.47629E5,1.1726E4,1.8526E4,4.06E2,6.946E3,1.40683E5,6.9E1,1.1657E4,2.393E3,1.6133E4,3.13E2,9.3E1,3.256E3,3.69E3,1.35544E5,5.139E3,1.4E1,5.5E1,1.1227E4,4.3E2,2.277E3,1.16E2,6.805E3,9.328E3,7.3E1,2.4E2,3.6E1,5.7E1,2.282E3,9.74E2,2.738E3,9.52E2,1.09982E5,2.5562E4,4.944E3,1.95E2,3.3E1,2.2E1,1.1046E4,1.81E2,3.49E2,8.1E1,1.986E3,2.91E2,1.7E1,9.9E1,4.828E3,1.977E3,7.703E3,1.625E3,6.3E1,1E1,1.7E1,2.23E2,2.2E1,1.4E1,4.3E1,1.4E1],"tree_param":{"num_deleted":"0","num_feature":"23","num_nodes":"61","size_leaf_vector":"1"}},{"base_weights":[-3.3287037E-5,1.3271106E-3,-1.4504789E-2,7.818214E-3,6.8452174E-4,-1.2638925E-2,-5.3253904E-2,3.851492E-2,7.0697754E-3,2.92161E-3,-2.0337282E-3,-7.832229E-3,-2.5880082E-2,-9.573312E-2,2.1092156E-3,6.79572E-2,1.1385209E-2,2.6895835E-3,1.0471852E-2,1.8968802E-3,7.0508947E-3,-7.4716355E-4,-7.571884E-3,-1.591178E-2,-1.3730087E-3,-2.1380994E-2,-6.549983E-2,-9.647101E-3,-8.757788E-2,9.469849E-2,-3.1082895E-2,5.969423E-4,2.4190855E-3,-1.0922026E-3,5.8524247E-4,2.2409238E-4,-1.7915404E-4,3.4795527E-4,-5.1117904E-4,7.150972E-5,-2.8804105E-4,1.711472E-4,5.2215974E-4,2.3898073E-4,-4.3068263E-5,-1.3895027E-4,-5.501437E-4,-5.88586E-4,3.5217043E-4,-1.3405322E-3,1.4585682E-5,-1.6527146E-3,-5.6407583E-4,-1.2115267E-3,-3.2618647E-3,-1.5604019E-3,-4.4750953E-3,4.641164E-3,-4.4359965E-4,3.2651913E-3,-1.4465458E-3],"categories":[],"categories_nodes":[],"categories_segments":[],"categories_sizes":[],"default_left":[0,0,0,0,0,0,0,0,0,0,1,0,0,0,0,0,0,0,0,0,0,0,0,0,0,0,0,0,0,0,0,0,0,0,0,0,0,0,0,0,0,0,0,0,0,0,0,0,0,0,0,0,0,0,0,0,0,0,0,0,0],"id":13,"left_children":[1,3,5,7,9,11,13,15,17,19,21,23,25,27,29,31,33,35,37,39,41,43,45,47,49,51,53,-1,55,57,59,-1,-1,-1,-1,-1,-1,-1,-1,-1,-1,-1,-1,-1,-1,-1,-1,-1,-1,-1,-1,-1,-1,-1,-1,-1,-1,-1,-1,-1,-1],"loss_changes":[3.4947355E0,6.7567337E-1,1.0956106E0,3.3050603E-1,8.97639E-1,9.229238E-1,1.651108E0,2.6606572E-1,2.1105033E-1,3.41776E-1,4.7380018E-1,5.5597866E-1,6.799276E-1,6.6025805E-1,9.4049484E-1,8.7664545E-2,6.967422E-2,2.5875506E-1,2.4789757E-1,3.6257982E-1,2.217235E-1,3.237122E-1,3.9466655E-1,4.8707652E-1,4.833206E-1,2.9405236E-1,4.063009E-1,0E0,8.132696E-1,5.484394E-1,5.338541E-1,0E0,0E0,0E0,0E0,0E0,0E0,0E0,0E0,0E0,0E0,0E0,0E0,0E0,0E0,0E0,0E0,0E0,0E0,0E0,0E0,0E0,0E0,0E0,0E0,0E0,0E0,0E0,0E0,0E0,0E0],"parents":[2147483647,0,0,1,1,2,2,3,3,4,4,5,5,6,6,7,7,8,8,9,9,10,10,11,11,12,12,13,13,14,14,15,15,16,16,17,17,18,18,19,19,20,20,21,21,22,22,23,23,24,24,25,25,26,26,28,28,29,29,30,30],"right_children":[2,4,6,8,10,12,14,16,18,20,22,24,26,28,30,32,34,36,38,40,42,44,46,48,50,52,54,-1,56,58,60,-1,-1,-1,-1,-1,-1,-1,-1,-1,-1,-1,-1,-1,-1,-1,-1,-1,-1,-1,-1,-1,-1,-1,-1,-1,-1,-1,-1,-1,-1],"split_conditions":[1.7830327E-1,-9.586328E-2,3.224663E-1,-1.0001348E-1,2.0316333E-2,8.342623E-1,9.7590363E-1,1.503006E-1,2.379317E-2,4.37751E-1,1.2218982E-2,7.7710843E-1,2.2824332E-1,-9.379605E-2,5.7873078E-2,-8.2696176E-1,-7.06797E-1,4.1482967E-1,-6.91085E-4,8.777555E-1,2.8182236E-2,-1.1781955E-1,3.538707E-2,1.0368826E-1,-7.010223E-2,1.5151516E-2,5.0413895E-2,-9.647101E-3,1.9341166E0,3.26646E-1,1.4816034E-2,5.969423E-4,2.4190855E-3,-1.0922026E-3,5.8524247E-4,2.2409238E-4,-1.7915404E-4,3.4795527E-4,-5.1117904E-4,7.150972E-5,-2.8804105E-4,1.711472E-4,5.2215974E-4,2.3898073E-4,-4.3068263E-5,-1.3895027E-4,-5.501437E-4,-5.88586E-4,3.5217043E-4,-1.3405322E-3,1.4585682E-5,-1.6527146E-3,-5.6407583E-4,-1.2115267E-3,-3.2618647E-3,-1.5604019E-3,-4.4750953E-3,4.641164E-3,-4.4359965E-4,3.2651913E-3,-1.4465458E-3],"split_indices":[9,9,8,0,5,16,14,13,5,14,20,12,8,0,5,18,6,12,3,12,7,3,5,7,0,3,5,0,6,17,7,0,0,0,0,0,0,0,0,0,0,0,0,0,0,0,0,0,0,0,0,0,0,0,0,0,0,0,0,0,0],"split_type":[0,0,0,0,0,0,0,0,0,0,0,0,0,0,0,0,0,0,0,0,0,0,0,0,0,0,0,0,0,0,0,0,0,0,0,0,0,0,0,0,0,0,0,0,0,0,0,0,0,0,0,0,0,0,0,0,0,0,0,0,0],"sum_hessian":[1.77446E5,1.62193E5,1.5253E4,1.4595E4,1.47598E5,1.4556E4,6.97E2,3.43E2,1.4252E4,8.0985E4,6.6613E4,1.0686E4,3.87E3,3.95E2,3.02E2,1.62E2,1.81E2,6.244E3,8.008E3,6.4904E4,1.6081E4,5.4071E4,1.2542E4,4.74E3,5.946E3,3.479E3,3.91E2,1.2E1,3.83E2,8E1,2.22E2,3.6E1,1.26E2,2.4E1,1.57E2,4.031E3,2.213E3,7.697E3,3.11E2,6.2277E4,2.627E3,1.4241E4,1.84E3,3.948E3,5.0123E4,9.86E3,2.682E3,4.183E3,5.57E2,2.46E2,5.7E3,2.43E2,3.236E3,2.5E2,1.41E2,2.45E2,1.38E2,5.2E1,2.8E1,2.3E1,1.99E2],"tree_param":{"num_deleted":"0","num_feature":"23","num_nodes":"61","size_leaf_vector":"1"}},{"base_weights":[-2.0640256E-4,1.1579151E-3,-1.47297075E-2,2.2904207E-3,-3.11456E-3,-1.2983554E-2,-6.613249E-2,7.895154E-3,1.6338697E-3,-2.9470643E-3,-7.399359E-2,-7.020655E-2,-1.1619508E-2,-3.3040017E-2,-1.0243365E-1,7.318584E-3,4.856463E-2,3.816188E-3,-1.3600237E-3,-1.5431872E-3,-8.763117E-3,-0E0,-1.1050805E-1,-6.1843935E-2,-9.236772E-3,-5.122718E-3,-1.805352E-2,-6.038304E-2,6.386324E-2,-4.0987935E-2,-1.3777752E-1,5.9885776E-4,1.7815584E-4,1.8098698E-3,2.7823885E-4,8.6556036E-5,2.402461E-4,9.713067E-5,-9.1459275E-5,-5.1748615E-5,1.5426808E-3,-9.170022E-4,-2.1455635E-4,7.8244536E-4,-4.8611267E-4,-2.8902572E-4,-4.534982E-3,-2.6250614E-3,-5.5655614E-6,-1.0912732E-4,-1.1660268E-3,-1.0138894E-3,-3.808551E-4,-9.528498E-4,-5.014351E-3,-1.7949953E-3,3.571511E-3,-0E0,-3.512949E-3,-5.9446287E-3,-3.2635825E-3],"categories":[],"categories_nodes":[],"categories_segments":[],"categories_sizes":[],"default_left":[0,0,0,0,0,0,0,0,0,0,0,0,0,0,0,0,0,0,0,0,0,0,0,0,0,0,0,0,0,0,0,0,0,0,0,0,0,0,0,0,0,0,0,0,0,0,0,0,0,0,0,0,0,0,0,0,0,0,0,0,0],"id":14,"left_children":[1,3,5,7,9,11,13,15,17,19,21,23,25,27,29,31,33,35,37,39,41,43,45,47,-1,49,51,53,55,57,59,-1,-1,-1,-1,-1,-1,-1,-1,-1,-1,-1,-1,-1,-1,-1,-1,-1,-1,-1,-1,-1,-1,-1,-1,-1,-1,-1,-1,-1,-1],"loss_changes":[3.5334697E0,7.883556E-1,1.3657715E0,4.7307628E-1,3.9720568E-1,1.1473053E0,5.849173E-1,3.1042743E-1,7.5378734E-1,2.769422E-1,2.1470848E-1,6.2575793E-1,6.0252583E-1,7.0565975E-1,4.911759E-1,2.2947884E-1,7.845336E-2,2.5930363E-1,3.7735748E-1,2.5930524E-1,2.2808391E-1,1.1946248E-2,1.9983429E-1,5.1803386E-1,0E0,3.569433E-1,6.075952E-1,6.10381E-1,4.0897894E-1,2.7555144E-1,2.0856047E-1,0E0,0E0,0E0,0E0,0E0,0E0,0E0,0E0,0E0,0E0,0E0,0E0,0E0,0E0,0E0,0E0,0E0,0E0,0E0,0E0,0E0,0E0,0E0,0E0,0E0,0E0,0E0,0E0,0E0,0E0],"parents":[2147483647,0,0,1,1,2,2,3,3,4,4,5,5,6,6,7,7,8,8,9,9,10,10,11,11,12,12,13,13,14,14,15,15,16,16,17,17,18,18,19,19,20,20,21,21,22,22,23,23,25,25,26,26,27,27,28,28,29,29,30,30],"right_children":[2,4,6,8,10,12,14,16,18,20,22,24,26,28,30,32,34,36,38,40,42,44,46,48,-1,50,52,54,56,58,60,-1,-1,-1,-1,-1,-1,-1,-1,-1,-1,-1,-1,-1,-1,-1,-1,-1,-1,-1,-1,-1,-1,-1,-1,-1,-1,-1,-1,-1,-1],"split_conditions":[1.7830327E-1,7.53507E-1,8.9993805E1,-9.586328E-2,6.0355935E-2,-9.379605E-2,4.5041804E-4,6.060606E1,2.0316333E-2,1.7269632E0,1E0,7.996604E1,4.1301634E-2,9.5983934E-1,3.7084398E-1,-1.8629186E-1,-5.3149607E-2,4.37751E-1,-8.9828765E-1,9.9744245E-2,6.6411026E-2,9.919517E-1,-5.1547192E-2,3.0059528E-1,-9.236772E-3,1.841617E-1,1.8069565E-1,4.389257E-2,1.5683581E0,9.563576E-1,5.984221E-2,5.9885776E-4,1.7815584E-4,1.8098698E-3,2.7823885E-4,8.6556036E-5,2.402461E-4,9.713067E-5,-9.1459275E-5,-5.1748615E-5,1.5426808E-3,-9.170022E-4,-2.1455635E-4,7.8244536E-4,-4.8611267E-4,-2.8902572E-4,-4.534982E-3,-2.6250614E-3,-5.5655614E-6,-1.0912732E-4,-1.1660268E-3,-1.0138894E-3,-3.808551E-4,-9.528498E-4,-5.014351E-3,-1.7949953E-3,3.571511E-3,-0E0,-3.512949E-3,-5.9446287E-3,-3.2635825E-3],"split_indices":[9,12,10,9,5,0,22,10,5,6,15,10,5,14,3,9,3,14,6,0,19,14,8,19,0,22,3,5,21,16,22,0,0,0,0,0,0,0,0,0,0,0,0,0,0,0,0,0,0,0,0,0,0,0,0,0,0,0,0,0,0],"split_type":[0,0,0,0,0,0,0,0,0,0,0,0,0,0,0,0,0,0,0,0,0,0,0,0,0,0,0,0,0,0,0,0,0,0,0,0,0,0,0,0,0,0,0,0,0,0,0,0,0,0,0,0,0,0,0,0,0,0,0,0,0],"sum_hessian":[1.78258E5,1.62945E5,1.5313E4,1.28822E5,3.4123E4,1.4813E4,5E2,1.3491E4,1.15331E5,3.4045E4,7.8E1,3.42E2,1.4471E4,2.64E2,2.36E2,1.3306E4,1.85E2,6.6726E4,4.8605E4,2.744E4,6.605E3,2.6E1,5.2E1,3.32E2,1E1,7.209E3,7.262E3,2.07E2,5.7E1,8.8E1,1.48E2,1.301E3,1.2005E4,1.4E2,4.5E1,5.4621E4,1.2105E4,1.304E4,3.5565E4,2.7349E4,9.1E1,4.49E2,6.156E3,1E1,1.6E1,1.6E1,3.6E1,2.33E2,9.9E1,6.909E3,3E2,1.838E3,5.424E3,1.65E2,4.2E1,1.7E1,4E1,5.8E1,3E1,4.5E1,1.03E2],"tree_param":{"num_deleted":"0","num_feature":"23","num_nodes":"61","size_leaf_vector":"1"}},{"base_weights":[-1.5493023E-4,1.5990933E-3,-1.5046559E-2,1.8956732E-3,-1.384962E-2,-1.2869962E-2,-4.181213E-2,2.4026101E-3,-3.285175E-3,-8.263849E-3,-5.3185795E-2,-5.3209825E-3,-1.9256918E-2,4.3672923E-2,-4.8528016E-2,1.3333475E-2,2.1900944E-3,-3.8550056E-3,2.7356906E-2,-1.1618623E-2,3.0310487E-2,3.349723E-2,-6.2354602E-2,-4.285194E-3,-5.3672336E-2,-1.4363103E-2,-3.327019E-2,-9.344047E-3,5.961939E-2,5.3514402E-2,-5.262467E-2,2.9877058E-4,1.0075159E-3,8.9188514E-5,2.6391565E-6,-9.908435E-5,-1.0218363E-3,1.9398008E-3,-3.084927E-5,-1.5440246E-4,-8.266063E-4,-1.5593284E-4,1.7813724E-3,-1.5424816E-4,2.0320031E-3,-2.9264432E-3,-1.3090577E-3,-3.7919283E-6,-4.157841E-4,7.609119E-5,-3.0152188E-3,-5.967453E-4,-7.854517E-5,-1.1040558E-3,6.562535E-4,2.0024809E-4,-1.0955107E-3,3.942924E-3,1.3816339E-3,4.418034E-3,3.0558588E-4,-1.3813204E-3,-2.8689587E-3],"categories":[],"categories_nodes":[],"categories_segments":[],"categories_sizes":[],"default_left":[0,0,0,0,0,0,0,0,0,0,0,0,0,0,0,0,0,1,0,0,0,0,0,0,0,0,0,0,0,0,0,0,0,0,0,0,0,0,0,0,0,0,0,0,0,0,0,0,0,0,0,0,0,0,0,0,0,0,0,0,0,0,0],"id":15,"left_children":[1,3,5,7,9,11,13,15,17,19,21,23,25,27,29,31,33,35,37,39,41,43,45,47,49,51,53,55,57,59,61,-1,-1,-1,-1,-1,-1,-1,-1,-1,-1,-1,-1,-1,-1,-1,-1,-1,-1,-1,-1,-1,-1,-1,-1,-1,-1,-1,-1,-1,-1,-1,-1],"loss_changes":[4.653571E0,7.2886384E-1,1.0877275E0,4.1052514E-1,6.5148556E-1,8.3478975E-1,8.109486E-1,3.292665E-1,2.4075724E-1,3.3830887E-1,2.9904318E-1,3.9302588E-1,6.393955E-1,9.1818824E-2,5.490961E-1,1.802915E-1,2.2962183E-1,2.2411233E-1,2.7220282E-1,2.460567E-1,2.2041908E-1,5.290709E-2,2.0298171E-1,3.0933514E-1,4.4441995E-1,4.505241E-1,4.749682E-1,1.3239477E-2,5.4127812E-2,1.8586282E-1,3.3746362E-1,0E0,0E0,0E0,0E0,0E0,0E0,0E0,0E0,0E0,0E0,0E0,0E0,0E0,0E0,0E0,0E0,0E0,0E0,0E0,0E0,0E0,0E0,0E0,0E0,0E0,0E0,0E0,0E0,0E0,0E0,0E0,0E0],"parents":[2147483647,0,0,1,1,2,2,3,3,4,4,5,5,6,6,7,7,8,8,9,9,10,10,11,11,12,12,13,13,14,14,15,15,16,16,17,17,18,18,19,19,20,20,21,21,22,22,23,23,24,24,25,25,26,26,27,27,28,28,29,29,30,30],"right_children":[2,4,6,8,10,12,14,16,18,20,22,24,26,28,30,32,34,36,38,40,42,44,46,48,50,52,54,56,58,60,62,-1,-1,-1,-1,-1,-1,-1,-1,-1,-1,-1,-1,-1,-1,-1,-1,-1,-1,-1,-1,-1,-1,-1,-1,-1,-1,-1,-1,-1,-1,-1,-1],"split_conditions":[3.3545646E-1,1.486903E-1,1.1115152E0,1.16E-1,1.4780766E-1,-2.2893819E-1,4.0258343E1,-1.6352454E-1,4.681251E-1,8.777555E-1,1.8800217E0,2.6584235E-1,1.2218982E-2,9.976246E-3,-3.3837777E-2,3.8373116E-2,7.172028E-1,6.2373735E-2,1.9269949E-1,1.252115E-1,7.112971E-2,1.7673975E-1,8.825658E-2,7.041723E-1,4.96203E-2,2.1042085E-1,9.8792756E-1,-1.2903225E-1,-1.06676616E-1,-1.8253127E-2,1.3113638E0,2.9877058E-4,1.0075159E-3,8.9188514E-5,2.6391565E-6,-9.908435E-5,-1.0218363E-3,1.9398008E-3,-3.084927E-5,-1.5440246E-4,-8.266063E-4,-1.5593284E-4,1.7813724E-3,-1.5424816E-4,2.0320031E-3,-2.9264432E-3,-1.3090577E-3,-3.7919283E-6,-4.157841E-4,7.609119E-5,-3.0152188E-3,-5.967453E-4,-7.854517E-5,-1.1040558E-3,6.562535E-4,2.0024809E-4,-1.0955107E-3,3.942924E-3,1.3816339E-3,4.418034E-3,3.0558588E-4,-1.3813204E-3,-2.8689587E-3],"split_indices":[4,22,4,3,8,6,10,9,19,14,6,2,20,16,20,7,16,20,4,4,3,4,19,16,5,18,14,2,1,22,6,0,0,0,0,0,0,0,0,0,0,0,0,0,0,0,0,0,0,0,0,0,0,0,0,0,0,0,0,0,0,0,0],"split_type":[0,0,0,0,0,0,0,0,0,0,0,0,0,0,0,0,0,0,0,0,0,0,0,0,0,0,0,0,0,0,0,0,0,0,0,0,0,0,0,0,0,0,0,0,0,0,0,0,0,0,0,0,0,0,0,0,0,0,0,0,0,0,0],"sum_hessian":[1.78106E5,1.59333E5,1.8773E4,1.56339E5,2.994E3,1.7366E4,1.407E3,1.42423E5,1.3916E4,2.625E3,3.69E2,7.967E3,9.399E3,1.01E2,1.306E3,2.706E3,1.39717E5,1.3666E4,2.5E2,2.418E3,2.07E2,3.4E1,3.35E2,7.803E3,1.64E2,6.973E3,2.426E3,2.2E1,7.9E1,4.9E1,1.257E3,2.325E3,3.81E2,1.01769E5,3.7948E4,1.3425E4,2.41E2,1.09E2,1.41E2,1.725E3,6.93E2,9.2E1,1.15E2,1.5E1,1.9E1,1.13E2,2.22E2,5.448E3,2.355E3,7.4E1,9E1,4.735E3,2.238E3,2.282E3,1.44E2,1.2E1,1E1,1E1,6.9E1,1.4E1,3.5E1,1.094E3,1.63E2],"tree_param":{"num_deleted":"0","num_feature":"23","num_nodes":"63","size_leaf_vector":"1"}},{"base_weights":[2.6049957E-4,1.374847E-3,-1.8949818E-2,2.7626199E-3,-2.569473E-3,-1.7039923E-2,-7.695179E-2,2.3994599E-2,2.5835345E-3,-2.001246E-3,-3.0643646E-2,-5.0022537E-3,-2.302863E-2,-1.13173E-2,-1.5190545E-1,6.207093E-2,1.8381858E-2,2.7340546E-3,-1.9329831E-2,-2.7646828E-3,7.4180486E-3,-1.0262479E-2,-5.2028753E-2,-1.6156095E-3,-5.1452167E-2,-3.339812E-2,-1.2321422E-2,-5.9564278E-2,4.6683222E-2,-1.7969926E-1,-1.6075589E-2,9.027043E-4,2.3943381E-3,-0E0,7.3457876E-4,7.491622E-5,3.345257E-4,-4.0263057E-4,-2.5937376E-3,1.7185198E-4,-1.1007881E-4,-2.1530073E-3,2.5046594E-4,-4.8078538E-4,1.8450333E-3,1.2753387E-3,-1.8723E-3,-5.2687735E-4,1.7506909E-4,-1.0921335E-4,-2.8077627E-3,-7.214634E-4,-1.7135352E-3,-2.70288E-4,-2.149492E-3,-2.277392E-3,1.4226116E-3,2.21854E-3,-1.5671965E-3,-3.2561063E-3,-6.668033E-3,1.2915296E-3,-2.0691543E-3],"categories":[],"categories_nodes":[],"categories_segments":[],"categories_sizes":[],"default_left":[0,0,0,0,0,0,0,0,0,0,0,0,0,0,0,0,0,0,0,0,0,0,0,0,0,0,0,0,0,0,0,0,0,0,0,0,0,0,0,0,0,0,0,0,0,0,0,0,0,0,0,0,0,0,0,0,0,0,0,0,0,0,0],"id":16,"left_children":[1,3,5,7,9,11,13,15,17,19,21,23,25,27,29,31,33,35,37,39,41,43,45,47,49,51,53,55,57,59,61,-1,-1,-1,-1,-1,-1,-1,-1,-1,-1,-1,-1,-1,-1,-1,-1,-1,-1,-1,-1,-1,-1,-1,-1,-1,-1,-1,-1,-1,-1,-1,-1],"loss_changes":[3.7964427E0,9.1801345E-1,1.06638E0,4.690593E-1,6.9268197E-1,6.7588186E-1,1.4971784E0,2.1157885E-1,4.0424216E-1,3.0710858E-1,3.6894268E-1,4.8777485E-1,6.9249654E-1,4.6859488E-1,5.173917E-1,6.036383E-2,1.0284677E-1,2.4223262E-1,3.2005212E-1,3.0385187E-1,2.2989751E-1,1.8050078E-1,4.148866E-1,3.488377E-1,4.150551E-1,6.970489E-1,5.99802E-1,1.673635E-1,2.0834278E-1,3.0025005E-1,8.687828E-2,0E0,0E0,0E0,0E0,0E0,0E0,0E0,0E0,0E0,0E0,0E0,0E0,0E0,0E0,0E0,0E0,0E0,0E0,0E0,0E0,0E0,0E0,0E0,0E0,0E0,0E0,0E0,0E0,0E0,0E0,0E0,0E0],"parents":[2147483647,0,0,1,1,2,2,3,3,4,4,5,5,6,6,7,7,8,8,9,9,10,10,11,11,12,12,13,13,14,14,15,15,16,16,17,17,18,18,19,19,20,20,21,21,22,22,23,23,24,24,25,25,26,26,27,27,28,28,29,29,30,30],"right_children":[2,4,6,8,10,12,14,16,18,20,22,24,26,28,30,32,34,36,38,40,42,44,46,48,50,52,54,56,58,60,62,-1,-1,-1,-1,-1,-1,-1,-1,-1,-1,-1,-1,-1,-1,-1,-1,-1,-1,-1,-1,-1,-1,-1,-1,-1,-1,-1,-1,-1,-1,-1,-1],"split_conditions":[4.8811817E-1,1.3207547E-1,1.2414141E-1,-2.2926094E-1,1.841617E-1,4.08076E-2,9.4388777E-1,-1.0001348E-1,1.14898756E-1,5.0401604E-1,2.8604164E0,2.1984785E0,6.177208E-2,4.4811434E-1,1.2555454E0,1.6129032E-1,1.617647E1,3.9992075E-2,4.6548028E-2,-8.61746E-2,-7.010223E-2,4.6548028E-2,6.382979E1,2.0394734E-1,2.2088353E-2,7.062937E1,9.663835E-1,4.5041804E-4,9.8792756E-1,4.0227056E-2,4.1562364E-2,9.027043E-4,2.3943381E-3,-0E0,7.3457876E-4,7.491622E-5,3.345257E-4,-4.0263057E-4,-2.5937376E-3,1.7185198E-4,-1.1007881E-4,-2.1530073E-3,2.5046594E-4,-4.8078538E-4,1.8450333E-3,1.2753387E-3,-1.8723E-3,-5.2687735E-4,1.7506909E-4,-1.0921335E-4,-2.8077627E-3,-7.214634E-4,-1.7135352E-3,-2.70288E-4,-2.149492E-3,-2.277392E-3,1.4226116E-3,2.21854E-3,-1.5671965E-3,-3.2561063E-3,-6.668033E-3,1.2915296E-3,-2.0691543E-3],"split_indices":[4,4,20,3,22,5,11,0,8,18,6,6,7,19,21,11,10,5,5,3,0,5,10,17,18,10,16,22,13,7,7,0,0,0,0,0,0,0,0,0,0,0,0,0,0,0,0,0,0,0,0,0,0,0,0,0,0,0,0,0,0,0,0],"split_type":[0,0,0,0,0,0,0,0,0,0,0,0,0,0,0,0,0,0,0,0,0,0,0,0,0,0,0,0,0,0,0,0,0,0,0,0,0,0,0,0,0,0,0,0,0,0,0,0,0,0,0,0,0,0,0,0,0,0,0,0,0,0,0],"sum_hessian":[1.77426E5,1.67704E5,9.722E3,1.24075E5,4.3629E4,9.415E3,3.07E2,1.032E3,1.23043E5,4.2768E4,8.61E2,3.134E3,6.281E3,1.65E2,1.42E2,1.29E2,9.03E2,1.22209E5,8.34E2,3.9572E4,3.196E3,4.44E2,4.17E2,2.924E3,2.1E2,3.185E3,3.096E3,9.1E1,7.4E1,1.17E2,2.5E1,4.9E1,8E1,2.23E2,6.8E2,1.18877E5,3.332E3,7.69E2,6.5E1,3.798E3,3.5774E4,3.5E1,3.161E3,4.13E2,3.1E1,4E1,3.77E2,9.35E2,1.989E3,1E2,1.1E2,2.289E3,8.96E2,2.935E3,1.61E2,8E1,1.1E1,5.9E1,1.5E1,4.6E1,7.1E1,1.1E1,1.4E1],"tree_param":{"num_deleted":"0","num_feature":"23","num_nodes":"63","size_leaf_vector":"1"}},{"base_weights":[5.2359395E-5,1.7431383E-3,-1.2158064E-2,2.1903887E-3,-7.6099075E-3,-1.0332691E-2,-3.7964497E-2,1.0210862E-2,1.801458E-3,-8.538224E-3,5.4582532E-2,-8.855613E-3,-3.6012884E-2,-3.5291087E-2,-1.5741187E-1,7.13597E-3,2.223888E-2,2.7831679E-3,-3.513256E-4,-3.7033474E-3,-1.823411E-2,1.5959362E-3,1.0078156E-1,-1.2815915E-2,-2.0441595E-3,-1.5034977E-2,-7.244767E-2,2.8798787E-4,-4.180392E-2,-2.3755415E-3,-6.200771E-3,2.4395339E-4,-6.117141E-4,4.351723E-4,1.0948182E-3,4.99478E-4,7.826041E-5,-2.0276184E-5,5.4539763E-4,-1.8199116E-4,5.03175E-4,-1.5425541E-3,-3.833123E-4,8.744557E-4,-1.3035075E-3,4.355362E-3,7.5178064E-4,-1.2026704E-4,-4.9982115E-4,1.2336131E-3,-1.1157223E-4,-1.4098795E-4,-1.869945E-3,-1.5011625E-3,-4.4165966E-3,-2.3855237E-4,2.5683297E-3,-2.2461752E-3,-1.0436346E-3],"categories":[],"categories_nodes":[],"categories_segments":[],"categories_sizes":[],"default_left":[0,0,0,0,0,0,0,0,0,0,0,0,0,0,0,0,0,0,0,0,0,0,0,0,0,0,0,0,0,0,0,0,0,0,0,0,0,0,0,0,0,0,0,0,0,0,0,0,0,0,0,0,0,0,0,0,0,0,0],"id":17,"left_children":[1,3,5,7,9,11,13,15,17,19,21,23,25,27,29,31,33,35,37,39,41,43,45,47,49,51,53,55,57,-1,-1,-1,-1,-1,-1,-1,-1,-1,-1,-1,-1,-1,-1,-1,-1,-1,-1,-1,-1,-1,-1,-1,-1,-1,-1,-1,-1,-1,-1],"loss_changes":[3.6616316E0,6.5137756E-1,1.0109096E0,4.6275818E-1,4.0589017E-1,7.5955486E-1,4.2894483E-1,2.508788E-1,3.0007985E-1,3.2588756E-1,2.4173814E-1,5.1263905E-1,8.248062E-1,3.267187E-1,7.0697606E-2,1.4907053E-1,1.4770937E-1,2.3385817E-1,2.653133E-1,2.2542423E-1,4.1341007E-1,6.1893295E-2,1.6087812E-1,4.056561E-1,5.037934E-1,3.332279E-1,6.381068E-1,1.58897E-1,2.599721E-1,0E0,0E0,0E0,0E0,0E0,0E0,0E0,0E0,0E0,0E0,0E0,0E0,0E0,0E0,0E0,0E0,0E0,0E0,0E0,0E0,0E0,0E0,0E0,0E0,0E0,0E0,0E0,0E0,0E0,0E0],"parents":[2147483647,0,0,1,1,2,2,3,3,4,4,5,5,6,6,7,7,8,8,9,9,10,10,11,11,12,12,13,13,14,14,15,15,16,16,17,17,18,18,19,19,20,20,21,21,22,22,23,23,24,24,25,25,26,26,27,27,28,28],"right_children":[2,4,6,8,10,12,14,16,18,20,22,24,26,28,30,32,34,36,38,40,42,44,46,48,50,52,54,56,58,-1,-1,-1,-1,-1,-1,-1,-1,-1,-1,-1,-1,-1,-1,-1,-1,-1,-1,-1,-1,-1,-1,-1,-1,-1,-1,-1,-1,-1,-1],"split_conditions":[3.0623257E-1,8.326882E-2,1.1115152E0,-1.2879801E-1,4.2534533E-1,5.0947405E-2,5.219303E-1,3.7482575E-2,6.856951E-1,1.6807622E0,3.508772E-2,4.968394E-2,7.926015E-1,-2.9409086E-2,2.0351087E-1,-1.493951E-2,8.544635E-2,-1.17588766E-1,4.8798572E-2,1.4198056E0,7.222524E-2,2.4834262E-1,3.4827626E-1,3.0393006E-2,2.778738E-2,4.5092008E-1,2.2824332E-1,2.674312E-1,9.318637E-1,-2.3755415E-3,-6.200771E-3,2.4395339E-4,-6.117141E-4,4.351723E-4,1.0948182E-3,4.99478E-4,7.826041E-5,-2.0276184E-5,5.4539763E-4,-1.8199116E-4,5.03175E-4,-1.5425541E-3,-3.833123E-4,8.744557E-4,-1.3035075E-3,4.355362E-3,7.5178064E-4,-1.2026704E-4,-4.9982115E-4,1.2336131E-3,-1.1157223E-4,-1.4098795E-4,-1.869945E-3,-1.5011625E-3,-4.4165966E-3,-2.3855237E-4,2.5683297E-3,-2.2461752E-3,-1.0436346E-3],"split_indices":[4,8,4,9,19,20,17,5,16,6,1,7,16,8,19,8,6,1,5,6,19,4,21,5,5,9,8,3,14,0,0,0,0,0,0,0,0,0,0,0,0,0,0,0,0,0,0,0,0,0,0,0,0,0,0,0,0,0,0],"split_type":[0,0,0,0,0,0,0,0,0,0,0,0,0,0,0,0,0,0,0,0,0,0,0,0,0,0,0,0,0,0,0,0,0,0,0,0,0,0,0,0,0,0,0,0,0,0,0,0,0,0,0,0,0,0,0,0,0,0,0],"sum_hessian":[1.77409E5,1.55839E5,2.157E4,1.48738E5,7.101E3,2.015E4,1.42E3,6.866E3,1.41872E5,6.999E3,1.02E2,1.9059E4,1.091E3,1.391E3,2.9E1,5.476E3,1.39E3,9.747E4,4.4402E4,4.678E3,2.321E3,4.9E1,5.3E1,1.2042E4,7.017E3,6.95E2,3.96E2,2.13E2,1.178E3,1.3E1,1.6E1,5.289E3,1.87E2,9.07E2,4.83E2,1.203E3,9.6267E4,4.3644E4,7.58E2,4.199E3,4.79E2,3.24E2,1.997E3,3.2E1,1.7E1,3.2E1,2.1E1,3.668E3,8.374E3,2.59E2,6.758E3,5.73E2,1.22E2,3.07E2,8.9E1,1.94E2,1.9E1,2.02E2,9.76E2],"tree_param":{"num_deleted":"0","num_feature":"23","num_nodes":"59","size_leaf_vector":"1"}},{"base_weights":[-1.418537E-4,1.3532724E-3,-1.2869448E-2,1.4792221E-3,-3.3998266E-2,-1.1347727E-2,-5.099712E-2,2.457347E-3,-2.0835344E-3,-2.4313658E-2,-1.0383783E-1,5.731058E-3,-1.3839269E-2,-3.6257558E-2,-1.1893429E-1,1.7754748E-2,2.2214476E-3,-1.9650534E-3,-7.789645E-2,-4.8289895E-2,-9.3722185E-3,-6.2242677E-3,-6.52951E-2,1.864205E-3,3.3000723E-2,-1.2837151E-2,-5.6179173E-2,-5.272132E-2,-6.1043114E-3,-1.2785878E-2,-1.585212E-1,1.1438443E-3,3.6689965E-4,7.290489E-5,-2.6258145E-4,-5.5093646E-5,-2.0969368E-3,-3.3701246E-3,-3.1338488E-5,-1.098507E-3,-4.52835E-3,-2.7163394E-3,-8.443656E-5,-2.7408358E-3,-0E0,-9.8326214E-5,6.1140466E-4,1.2832303E-3,-2.3838074E-3,1.6771655E-6,-4.5090241E-4,-2.9224248E-3,-3.0683316E-4,-1.3285058E-3,-4.7308137E-3,1.6939357E-3,-1.2026954E-3,-2.8281773E-3,2.0514787E-3,-5.749724E-4,-5.7375124E-3],"categories":[],"categories_nodes":[],"categories_segments":[],"categories_sizes":[],"default_left":[0,0,0,0,0,0,0,0,0,0,0,0,0,0,0,0,0,0,1,0,0,0,0,0,0,0,0,0,0,0,0,0,0,0,0,0,0,0,0,0,0,0,0,0,0,0,0,0,0,0,0,0,0,0,0,0,0,0,0,0,0],"id":18,"left_children":[1,3,5,7,9,11,13,15,17,19,21,23,25,27,29,31,33,35,37,39,41,-1,43,45,47,49,51,53,55,57,59,-1,-1,-1,-1,-1,-1,-1,-1,-1,-1,-1,-1,-1,-1,-1,-1,-1,-1,-1,-1,-1,-1,-1,-1,-1,-1,-1,-1,-1,-1],"loss_changes":[3.3902216E0,7.063867E-1,1.0798373E0,5.5345297E-1,3.6545593E-1,7.67431E-1,6.971452E-1,4.476763E-1,2.9893327E-1,1.7182621E-1,2.2680604E-1,2.3782197E-1,6.596248E-1,2.8718925E-1,5.103053E-1,2.0678246E-1,2.80513E-1,2.909035E-1,1.2618104E-1,2.0099571E-1,1.5542275E-1,0E0,9.139821E-2,1.9304252E-1,3.0859157E-1,4.3594956E-1,6.722642E-1,3.0939853E-1,4.5143053E-1,2.4714513E-1,3.9034367E-1,0E0,0E0,0E0,0E0,0E0,0E0,0E0,0E0,0E0,0E0,0E0,0E0,0E0,0E0,0E0,0E0,0E0,0E0,0E0,0E0,0E0,0E0,0E0,0E0,0E0,0E0,0E0,0E0,0E0,0E0],"parents":[2147483647,0,0,1,1,2,2,3,3,4,4,5,5,6,6,7,7,8,8,9,9,10,10,11,11,12,12,13,13,14,14,15,15,16,16,17,17,18,18,19,19,20,20,22,22,23,23,24,24,25,25,26,26,27,27,28,28,29,29,30,30],"right_children":[2,4,6,8,10,12,14,16,18,20,22,24,26,28,30,32,34,36,38,40,42,-1,44,46,48,50,52,54,56,58,60,-1,-1,-1,-1,-1,-1,-1,-1,-1,-1,-1,-1,-1,-1,-1,-1,-1,-1,-1,-1,-1,-1,-1,-1,-1,-1,-1,-1,-1,-1],"split_conditions":[3.3545646E-1,2.7608657E-1,1.3315461E0,7.53507E-1,2.4082687E-1,-5.4899234E-2,8.3901306E1,-1.7282529E-1,2.6329917E-1,7.407121E-2,8.453518E-1,8.688384E-1,1.2414141E-1,1.8364571E-1,1.453935E-1,-7.943409E-1,2.2192279E-1,6.0355935E-2,1.8549213E-2,1.6856931E-1,7.515941E-1,-6.2242677E-3,2.6329115E-1,-3.374072E-2,9.1678065E-1,2.8269088E-2,4.2534533E-1,6.831432E1,9.4388777E-1,9.9596775E-1,3.224663E-1,1.1438443E-3,3.6689965E-4,7.290489E-5,-2.6258145E-4,-5.5093646E-5,-2.0969368E-3,-3.3701246E-3,-3.1338488E-5,-1.098507E-3,-4.52835E-3,-2.7163394E-3,-8.443656E-5,-2.7408358E-3,-0E0,-9.8326214E-5,6.1140466E-4,1.2832303E-3,-2.3838074E-3,1.6771655E-6,-4.5090241E-4,-2.9224248E-3,-3.0683316E-4,-1.3285058E-3,-4.7308137E-3,1.6939357E-3,-1.2026954E-3,-2.8281773E-3,2.0514787E-3,-5.749724E-4,-5.7375124E-3],"split_indices":[4,22,4,12,2,8,10,9,8,21,16,4,20,8,19,16,21,5,20,9,16,0,4,1,16,5,19,10,12,12,8,0,0,0,0,0,0,0,0,0,0,0,0,0,0,0,0,0,0,0,0,0,0,0,0,0,0,0,0,0,0],"split_type":[0,0,0,0,0,0,0,0,0,0,0,0,0,0,0,0,0,0,0,0,0,0,0,0,0,0,0,0,0,0,0,0,0,0,0,0,0,0,0,0,0,0,0,0,0,0,0,0,0,0,0,0,0,0,0,0,0,0,0,0,0],"sum_hessian":[1.78095E5,1.59367E5,1.8728E4,1.58805E5,5.62E2,1.8013E4,7.15E2,1.2462E5,3.4185E4,4.96E2,6.6E1,2.288E3,1.5725E4,5.9E2,1.25E2,1.885E3,1.22735E5,3.4134E4,5.1E1,1.87E2,3.09E2,1.6E1,5E1,2.008E3,2.8E2,1.5365E4,3.6E2,3.79E2,2.11E2,3.5E1,9E1,3.97E2,1.488E3,1.20454E5,2.281E3,3.4072E4,6.2E1,3.4E1,1.7E1,1.7E2,1.7E1,2.1E1,2.88E2,3.6E1,1.4E1,1.568E3,4.4E2,2.59E2,2.1E1,2.227E3,1.3138E4,1.88E2,1.72E2,3.53E2,2.6E1,7.3E1,1.38E2,1.8E1,1.7E1,1.8E1,7.2E1],"tree_param":{"num_deleted":"0","num_feature":"23","num_nodes":"61","size_leaf_vector":"1"}},{"base_weights":[-1.604215E-5,1.4661455E-3,-1.2639836E-2,2.529344E-3,-1.6393353E-3,-1.1236472E-2,-4.8992537E-2,1.8514192E-2,2.356739E-3,-1.3276514E-3,-2.4839226E-2,-5.7334226E-2,-1.0297666E-2,-1.290413E-2,-6.738347E-2,3.0548958E-2,8.143305E-3,3.1631317E-3,-3.2699402E-4,-1.6896367E-3,1.7577413E-2,-7.89833E-4,-4.121495E-2,-2.515215E-2,-9.382892E-2,-1.4531876E-2,-3.9427187E-3,2.8140643E-3,-1.560321E-1,3.9017722E-3,-7.233737E-2,1.2341434E-3,2.522983E-4,-4.928507E-4,5.345718E-4,1.0496861E-4,-1.0635101E-4,-1.5942633E-4,6.807553E-5,1.5918002E-5,-1.1444567E-4,7.4533577E-4,-1.4791818E-3,1.8638403E-3,-1.863267E-4,-1.3606584E-3,1.308097E-3,-2.927662E-3,-3.1554853E-4,-3.7872388E-3,-3.7441164E-4,-3.9470813E-4,-1.5811241E-3,2.6730051E-5,-8.5467024E-4,-1.0335658E-3,1.0014339E-3,-1.9209491E-3,-7.4954377E-3,9.81689E-4,-2.3592543E-3],"categories":[],"categories_nodes":[],"categories_segments":[],"categories_sizes":[],"default_left":[0,0,0,0,0,0,0,0,0,0,0,0,0,0,0,0,0,0,0,0,0,0,0,0,0,0,0,0,0,0,0,0,0,0,0,0,0,0,0,0,0,0,0,0,0,0,0,0,0,0,0,0,0,0,0,0,0,0,0,0,0],"id":19,"left_children":[1,3,5,7,9,11,13,15,17,19,21,23,25,27,29,31,33,35,37,39,41,43,45,47,49,51,53,55,57,-1,59,-1,-1,-1,-1,-1,-1,-1,-1,-1,-1,-1,-1,-1,-1,-1,-1,-1,-1,-1,-1,-1,-1,-1,-1,-1,-1,-1,-1,-1,-1],"loss_changes":[3.319633E0,5.241293E-1,9.445195E-1,3.241564E-1,2.89889E-1,7.696383E-1,4.4905424E-1,1.5276965E-1,2.5349802E-1,2.7166188E-1,2.0528254E-1,4.0385497E-1,4.716525E-1,5.466932E-1,4.486761E-1,1.2996733E-1,1.6233921E-1,2.0275295E-1,3.4998232E-1,1.8520562E-1,3.6088577E-1,6.949095E-2,1.1242193E-1,1.9168812E-1,4.1960776E-1,5.4653645E-1,8.390297E-1,2.4367557E-1,1.5976024E-1,0E0,3.019097E-1,0E0,0E0,0E0,0E0,0E0,0E0,0E0,0E0,0E0,0E0,0E0,0E0,0E0,0E0,0E0,0E0,0E0,0E0,0E0,0E0,0E0,0E0,0E0,0E0,0E0,0E0,0E0,0E0,0E0,0E0],"parents":[2147483647,0,0,1,1,2,2,3,3,4,4,5,5,6,6,7,7,8,8,9,9,10,10,11,11,12,12,13,13,14,14,15,15,16,16,17,17,18,18,19,19,20,20,21,21,22,22,23,23,24,24,25,25,26,26,27,27,28,28,30,30],"right_children":[2,4,6,8,10,12,14,16,18,20,22,24,26,28,30,32,34,36,38,40,42,44,46,48,50,52,54,56,58,-1,60,-1,-1,-1,-1,-1,-1,-1,-1,-1,-1,-1,-1,-1,-1,-1,-1,-1,-1,-1,-1,-1,-1,-1,-1,-1,-1,-1,-1,-1,-1],"split_conditions":[3.3545646E-1,7.183099E-1,1.3315461E0,-1.8629186E-1,2.7608657E-1,-9.379605E-2,-1.6150484E-2,-4.1730487E-1,1.037037E-1,4.8798572E-2,1.1837456E-1,2.8722885E-1,4.968394E-2,1.0843594E-2,-1.0220229E-1,3.466594E-1,-1.4842382E-1,8.169935E-2,3.9262533E-2,6.577734E-1,2.4082687E-1,7.811245E-1,4.769109E-2,3.6217302E-2,2.8029475E-1,5.149591E-1,9.0052587E-1,4.6049625E-1,9.678715E-1,3.9017722E-3,7.997667E-2,1.2341434E-3,2.522983E-4,-4.928507E-4,5.345718E-4,1.0496861E-4,-1.0635101E-4,-1.5942633E-4,6.807553E-5,1.5918002E-5,-1.1444567E-4,7.4533577E-4,-1.4791818E-3,1.8638403E-3,-1.863267E-4,-1.3606584E-3,1.308097E-3,-2.927662E-3,-3.1554853E-4,-3.7872388E-3,-3.7441164E-4,-3.9470813E-4,-1.5811241E-3,2.6730051E-5,-8.5467024E-4,-1.0335658E-3,1.0014339E-3,-1.9209491E-3,-7.4954377E-3,9.81689E-4,-2.3592543E-3],"split_indices":[4,12,4,9,22,0,0,16,4,5,3,9,7,20,22,17,2,3,9,16,2,12,7,12,19,9,16,16,13,0,19,0,0,0,0,0,0,0,0,0,0,0,0,0,0,0,0,0,0,0,0,0,0,0,0,0,0,0,0,0,0],"split_type":[0,0,0,0,0,0,0,0,0,0,0,0,0,0,0,0,0,0,0,0,0,0,0,0,0,0,0,0,0,0,0,0,0,0,0,0,0,0,0,0,0,0,0,0,0,0,0,0,0,0,0,0,0,0,0,0,0,0,0,0,0],"sum_hessian":[1.77356E5,1.58714E5,1.8642E4,1.18259E5,4.0455E4,1.7953E4,6.89E2,1.256E3,1.17003E5,3.9924E4,5.31E2,3.55E2,1.7598E4,2.35E2,4.54E2,5.76E2,6.8E2,8.9998E4,2.7005E4,3.918E4,7.44E2,2.18E2,3.13E2,1.91E2,1.64E2,1.0551E4,7.047E3,2.12E2,2.3E1,1E1,4.44E2,3.86E2,1.9E2,1.89E2,4.91E2,8.5722E4,4.276E3,9.258E3,1.7747E4,1.9139E4,2.0041E4,6.73E2,7.1E1,1.5E1,2.03E2,3E2,1.3E1,3E1,1.61E2,1.16E2,4.8E1,1.0188E4,3.63E2,5.885E3,1.162E3,9.4E1,1.18E2,1.3E1,1E1,2.4E1,4.2E2],"tree_param":{"num_deleted":"0","num_feature":"23","num_nodes":"61","size_leaf_vector":"1"}},{"base_weights":[-3.0471516E-5,1.7104383E-3,-1.2691587E-2,2.0101122E-3,-9.652213E-3,-1.13657825E-2,-5.2968495E-2,1.7438069E-2,1.8316845E-3,-8.168738E-3,-6.658923E-2,-6.3063116E-3,-1.7156668E-2,-3.6401704E-2,-1.0852245E-1,9.967923E-3,3.37354E-2,2.2455791E-3,-2.3674495E-3,8.828271E-3,-1.1816841E-2,-1.0067409E-2,-1.12699166E-1,-7.0260623E-3,7.720643E-2,-1.5025112E-2,-4.954142E-2,-3.062128E-3,-5.463146E-2,-1.6556328E-2,-1.525005E-1,6.8599766E-4,3.8094695E-5,1.8264091E-3,6.0281507E-4,1.164766E-4,4.1035368E-5,-7.804239E-5,3.088139E-3,7.6574844E-4,-1.01978076E-4,-1.880177E-4,-6.74266E-4,4.6085365E-4,-3.1133303E-3,-6.2402147E-3,-2.3440444E-3,-2.1924295E-3,-1.9090733E-4,1.2570886E-3,5.7951226E-3,2.7401813E-6,-5.463075E-4,-7.9898414E-4,-2.482831E-3,-6.3822605E-4,3.4196556E-3,3.578007E-4,-1.978675E-3,1.3446796E-3,-1.7833171E-3,-6.731693E-3,-3.075033E-3],"categories":[],"categories_nodes":[],"categories_segments":[],"categories_sizes":[],"default_left":[0,0,0,0,0,0,0,0,1,0,0,0,0,0,0,0,0,0,0,0,0,0,0,0,0,0,0,0,0,0,0,0,0,0,0,0,0,0,0,0,0,0,0,0,0,0,0,0,0,0,0,0,0,0,0,0,0,0,0,0,0,0,0],"id":20,"left_children":[1,3,5,7,9,11,13,15,17,19,21,23,25,27,29,31,33,35,37,39,41,43,45,47,49,51,53,55,57,59,61,-1,-1,-1,-1,-1,-1,-1,-1,-1,-1,-1,-1,-1,-1,-1,-1,-1,-1,-1,-1,-1,-1,-1,-1,-1,-1,-1,-1,-1,-1,-1,-1],"loss_changes":[3.9231822E0,5.31886E-1,1.1419046E0,4.1759694E-1,3.3076793E-1,6.079571E-1,6.10157E-1,2.0663995E-1,2.618696E-1,2.4297392E-1,2.4721056E-1,6.625307E-1,6.6273403E-1,3.1557494E-1,6.074655E-1,1.3174124E-1,1.9101101E-1,1.9657362E-1,3.2279292E-1,1.4255676E-1,1.8780696E-1,1.2243571E-1,1.3302314E-1,4.7457367E-1,3.5322905E-1,4.4044137E-1,4.4042158E-1,3.9818332E-1,2.624576E-1,1.4101112E-1,3.1813025E-1,0E0,0E0,0E0,0E0,0E0,0E0,0E0,0E0,0E0,0E0,0E0,0E0,0E0,0E0,0E0,0E0,0E0,0E0,0E0,0E0,0E0,0E0,0E0,0E0,0E0,0E0,0E0,0E0,0E0,0E0,0E0,0E0],"parents":[2147483647,0,0,1,1,2,2,3,3,4,4,5,5,6,6,7,7,8,8,9,9,10,10,11,11,12,12,13,13,14,14,15,15,16,16,17,17,18,18,19,19,20,20,21,21,22,22,23,23,24,24,25,25,26,26,27,27,28,28,29,29,30,30],"right_children":[2,4,6,8,10,12,14,16,18,20,22,24,26,28,30,32,34,36,38,40,42,44,46,48,50,52,54,56,58,60,62,-1,-1,-1,-1,-1,-1,-1,-1,-1,-1,-1,-1,-1,-1,-1,-1,-1,-1,-1,-1,-1,-1,-1,-1,-1,-1,-1,-1,-1,-1,-1,-1],"split_conditions":[3.0623257E-1,1.291204E-1,1.3315461E0,-1.3144003E-1,2.4082687E-1,-2.145648E-2,3.224663E-1,2.7974172E-2,3.374864E-2,1.4573445E0,3.162326E-1,1.9822222E-1,5.688041E-2,-1.7757954E-2,1.4224222E-1,2.2527131E-1,-1.0001348E-1,-2.8008299E-2,2.2949886E-1,2.855217E-1,1.252115E-1,1.9678864E-1,9.358717E-1,-9.379605E-2,-1.691536E-1,2.8269088E-2,3.7084398E-1,3.440558E-1,-1.3461422E0,2.2181146E-2,9.7987926E-1,6.8599766E-4,3.8094695E-5,1.8264091E-3,6.0281507E-4,1.164766E-4,4.1035368E-5,-7.804239E-5,3.088139E-3,7.6574844E-4,-1.01978076E-4,-1.880177E-4,-6.74266E-4,4.6085365E-4,-3.1133303E-3,-6.2402147E-3,-2.3440444E-3,-2.1924295E-3,-1.9090733E-4,1.2570886E-3,5.7951226E-3,2.7401813E-6,-5.463075E-4,-7.9898414E-4,-2.482831E-3,-6.3822605E-4,3.4196556E-3,3.578007E-4,-1.978675E-3,1.3446796E-3,-1.7833171E-3,-6.731693E-3,-3.075033E-3],"split_indices":[4,22,4,8,2,6,8,22,20,6,17,1,20,0,19,19,0,4,1,17,4,19,11,0,6,5,3,2,6,0,14,0,0,0,0,0,0,0,0,0,0,0,0,0,0,0,0,0,0,0,0,0,0,0,0,0,0,0,0,0,0,0,0],"split_type":[0,0,0,0,0,0,0,0,0,0,0,0,0,0,0,0,0,0,0,0,0,0,0,0,0,0,0,0,0,0,0,0,0,0,0,0,0,0,0,0,0,0,0,0,0,0,0,0,0,0,0,0,0,0,0,0,0,0,0,0,0,0,0],"sum_hessian":[1.77936E5,1.56421E5,2.1515E4,1.52411E5,4.01E3,2.0833E4,6.82E2,1.735E3,1.50676E5,3.911E3,9.9E1,1.1129E4,9.704E3,5.28E2,1.54E2,1.195E3,5.4E2,1.37179E5,1.3497E4,6.86E2,3.225E3,4.6E1,5.3E1,1.1036E4,9.3E1,9.109E3,5.95E2,1.89E2,3.39E2,5.1E1,1.03E2,4.76E2,7.19E2,1.77E2,3.63E2,4.784E4,8.9339E4,1.3469E4,2.8E1,2.93E2,3.93E2,2.128E3,1.097E3,3.6E1,1E1,1.2E1,4.1E1,1.07E2,1.0929E4,7.3E1,2E1,1.58E3,7.529E3,3.55E2,2.4E2,1.65E2,2.4E1,4.8E1,2.91E2,2E1,3.1E1,4E1,6.3E1],"tree_param":{"num_deleted":"0","num_feature":"23","num_nodes":"63","size_leaf_vector":"1"}},{"base_weights":[-1.8210041E-5,9.972038E-4,-1.6254522E-2,1.3248724E-3,-1.0985781E-2,-1.4446597E-2,-7.265564E-2,6.6868025E-3,8.0823264E-4,-2.7658944E-3,-1.8151341E-2,-8.811993E-3,-3.015766E-2,-1.4551929E-1,-4.6542767E-2,2.6773463E-3,1.0713894E-2,1.982959E-3,-2.6431747E-3,-4.92355E-3,1.4371715E-2,-5.3955745E-3,-1.7280174E-2,-1.292501E-2,6.056933E-3,-1.2416133E-2,-4.3178048E-2,-1.8161671E-1,7.7909784E-4,-1.0933755E-1,-2.595233E-2,7.230028E-5,2.5555887E-3,2.1053126E-4,6.614349E-4,5.8059533E-5,4.508864E-3,1.2028314E-4,-1.6392522E-4,1.0309256E-4,-2.627046E-4,-2.540082E-4,2.5437183E-3,-5.891746E-4,1.0756459E-3,1.9787478E-4,-5.356173E-4,-2.5287373E-3,2.556351E-4,3.9265415E-4,-8.62561E-4,-1.3854986E-3,1.9659125E-3,-2.4343508E-3,-7.8437235E-3,-5.4843957E-3,-2.6441454E-3,-3.9781486E-3,-3.678417E-4],"categories":[],"categories_nodes":[],"categories_segments":[],"categories_sizes":[],"default_left":[0,0,0,0,0,0,1,0,0,0,0,0,0,0,0,0,0,0,0,0,0,0,0,0,1,0,0,0,0,0,0,0,0,0,0,0,0,0,0,0,0,0,0,0,0,0,0,0,0,0,0,0,0,0,0,0,0,0,0],"id":21,"left_children":[1,3,5,7,9,11,13,15,17,19,21,23,25,27,29,31,33,35,37,39,41,-1,43,45,47,49,51,53,-1,55,57,-1,-1,-1,-1,-1,-1,-1,-1,-1,-1,-1,-1,-1,-1,-1,-1,-1,-1,-1,-1,-1,-1,-1,-1,-1,-1,-1,-1],"loss_changes":[2.9395978E0,6.575728E-1,1.0604053E0,4.5150566E-1,2.6031685E-1,8.963196E-1,5.904888E-1,2.300269E-1,6.037698E-1,7.614916E-2,3.116007E-1,4.5900822E-1,6.1298895E-1,5.402677E-1,2.9523975E-1,1.4974007E-1,2.959243E-1,7.6973283E-1,7.0950425E-1,6.003954E-2,3.7503648E-1,0E0,2.9527158E-1,5.6651396E-1,3.5359433E-1,4.764964E-1,5.0485516E-1,5.0604534E-1,0E0,4.7135055E-2,2.5255954E-1,0E0,0E0,0E0,0E0,0E0,0E0,0E0,0E0,0E0,0E0,0E0,0E0,0E0,0E0,0E0,0E0,0E0,0E0,0E0,0E0,0E0,0E0,0E0,0E0,0E0,0E0,0E0,0E0],"parents":[2147483647,0,0,1,1,2,2,3,3,4,4,5,5,6,6,7,7,8,8,9,9,10,10,11,11,12,12,13,13,14,14,15,15,16,16,17,17,18,18,19,19,20,20,22,22,23,23,24,24,25,25,26,26,27,27,29,29,30,30],"right_children":[2,4,6,8,10,12,14,16,18,20,22,24,26,28,30,32,34,36,38,40,42,-1,44,46,48,50,52,54,-1,56,58,-1,-1,-1,-1,-1,-1,-1,-1,-1,-1,-1,-1,-1,-1,-1,-1,-1,-1,-1,-1,-1,-1,-1,-1,-1,-1,-1,-1],"split_conditions":[4.6941897E-1,1.291204E-1,5.020454E-1,-9.586328E-2,7.782101E-2,6.736112E-1,-1.6352352E-3,2.5409736E-2,2.7646326E-2,3.293371E-2,-7.1438126E-2,7.506604E-2,4.1301634E-2,4.2534533E-1,-5.96166E-2,5.5374816E-2,4.5041804E-4,9.630557E-2,-7.594127E-1,1.243473E-1,1.3227513E-2,-5.3955745E-3,4.726065E-2,-5.9508346E-2,-4.584768E-2,6.902714E-1,7.0883536E-1,5.149591E-1,7.7909784E-4,-7.6053515E-2,6.6411026E-2,7.230028E-5,2.5555887E-3,2.1053126E-4,6.614349E-4,5.8059533E-5,4.508864E-3,1.2028314E-4,-1.6392522E-4,1.0309256E-4,-2.627046E-4,-2.540082E-4,2.5437183E-3,-5.891746E-4,1.0756459E-3,1.9787478E-4,-5.356173E-4,-2.5287373E-3,2.556351E-4,3.9265415E-4,-8.62561E-4,-1.3854986E-3,1.9659125E-3,-2.4343508E-3,-7.8437235E-3,-5.4843957E-3,-2.6441454E-3,-3.9781486E-3,-3.678417E-4],"split_indices":[4,22,17,9,4,6,20,5,5,5,9,1,5,19,0,7,22,7,6,19,4,0,5,8,20,16,18,9,0,6,19,0,0,0,0,0,0,0,0,0,0,0,0,0,0,0,0,0,0,0,0,0,0,0,0,0,0,0,0],"split_type":[0,0,0,0,0,0,0,0,0,0,0,0,0,0,0,0,0,0,0,0,0,0,0,0,0,0,0,0,0,0,0,0,0,0,0,0,0,0,0,0,0,0,0,0,0,0,0,0,0,0,0,0,0,0,0,0,0,0,0],"sum_hessian":[1.78208E5,1.67714E5,1.0494E4,1.63259E5,4.455E3,1.0171E4,3.23E2,1.433E4,1.48929E5,2.082E3,2.373E3,7.492E3,2.679E3,8.3E1,2.4E2,7.194E3,7.136E3,1.11133E5,3.7796E4,1.855E3,2.27E2,1.1E1,2.362E3,5.874E3,1.618E3,1.138E3,1.541E3,6.9E1,1.4E1,5.7E1,1.83E2,7.173E3,2.1E1,5.389E3,1.747E3,1.11099E5,3.4E1,1.1244E4,2.6552E4,5.75E2,1.28E3,1.71E2,5.6E1,2.264E3,9.8E1,1.18E3,4.694E3,4.1E1,1.577E3,4.42E2,6.96E2,1.501E3,4E1,3.2E1,3.7E1,1E1,4.7E1,1.9E1,1.64E2],"tree_param":{"num_deleted":"0","num_feature":"23","num_nodes":"59","size_leaf_vector":"1"}},{"base_weights":[1.041818E-4,1.0040343E-3,-1.649291E-2,2.1287235E-3,-2.2212975E-3,-1.2542603E-2,-3.9334428E-2,2.8406843E-3,-2.1904246E-3,-1.7975254E-3,-3.0359484E-2,-1.0910642E-2,-6.301898E-2,-1.8960113E-2,-7.8574434E-2,1.6740216E-2,2.6600913E-3,8.0559505E-3,-4.497275E-3,-1.4019345E-3,-3.1823E-2,-5.254741E-3,-2.6225617E-2,7.6141395E-3,-1.4179172E-2,-1.2832794E-1,-3.8254365E-2,9.561843E-2,-2.251009E-2,-1.14434056E-1,-2.1162812E-2,2.6410405E-4,1.0151186E-3,5.6845904E-5,1.4547871E-4,8.44958E-5,7.34489E-4,7.9263846E-5,-2.3789193E-4,-5.1406045E-5,1.6078291E-3,1.3082405E-3,-1.4373688E-3,-1.0001054E-3,9.962936E-4,-2.6773647E-3,2.8594732E-4,-8.897703E-4,-1.7984085E-4,-8.067679E-3,-2.8817274E-3,1.0438345E-3,-1.832988E-3,-0E0,6.8676793E-3,-1.8810897E-4,-1.4665534E-3,-2.5880765E-3,-5.9358524E-3,2.1675641E-3,-2.6786223E-3],"categories":[],"categories_nodes":[],"categories_segments":[],"categories_sizes":[],"default_left":[0,0,0,0,0,0,0,0,0,0,0,0,0,0,0,0,0,0,0,0,0,0,0,0,0,0,0,0,0,0,0,0,0,0,0,0,0,0,0,0,0,0,0,0,0,0,0,0,0,0,0,0,0,0,0,0,0,0,0,0,0],"id":22,"left_children":[1,3,5,7,9,11,13,15,17,19,21,23,25,27,29,31,33,35,37,39,41,-1,43,45,47,49,51,53,55,57,59,-1,-1,-1,-1,-1,-1,-1,-1,-1,-1,-1,-1,-1,-1,-1,-1,-1,-1,-1,-1,-1,-1,-1,-1,-1,-1,-1,-1,-1,-1],"loss_changes":[2.653481E0,6.117219E-1,8.187597E-1,3.846357E-1,5.163614E-1,6.3403606E-1,1.0624692E0,2.6756108E-1,4.175327E-1,5.0661844E-1,3.6015362E-1,4.581499E-1,3.6983162E-1,3.556301E-1,9.2487097E-1,1.8134034E-1,1.769132E-1,2.7614784E-1,3.5436285E-1,7.2119755E-1,6.760854E-1,0E0,2.6612687E-1,2.0255971E-1,8.10395E-1,2.3257756E-1,3.01806E-1,3.387464E-1,3.6339402E-1,6.124413E-1,1.140921E0,0E0,0E0,0E0,0E0,0E0,0E0,0E0,0E0,0E0,0E0,0E0,0E0,0E0,0E0,0E0,0E0,0E0,0E0,0E0,0E0,0E0,0E0,0E0,0E0,0E0,0E0,0E0,0E0,0E0,0E0],"parents":[2147483647,0,0,1,1,2,2,3,3,4,4,5,5,6,6,7,7,8,8,9,9,10,10,11,11,12,12,13,13,14,14,15,15,16,16,17,17,18,18,19,19,20,20,22,22,23,23,24,24,25,25,26,26,27,27,28,28,29,29,30,30],"right_children":[2,4,6,8,10,12,14,16,18,20,22,24,26,28,30,32,34,36,38,40,42,-1,44,46,48,50,52,54,56,58,60,-1,-1,-1,-1,-1,-1,-1,-1,-1,-1,-1,-1,-1,-1,-1,-1,-1,-1,-1,-1,-1,-1,-1,-1,-1,-1,-1,-1,-1,-1],"split_conditions":[5.075361E-1,2.6132405E-2,1.2803199E0,1.5710951E-1,2.7608657E-1,4.9870944E-1,4.543072E-1,-1.8629186E-1,-8.783784E-2,5.6107596E-2,2.015321E-2,-5.599913E-2,-9.379605E-2,1.0491616E-2,5.213754E-2,8.453972E-3,1.21951215E-2,5.2942995E-2,1.6905217E-2,1.0368826E-1,8.878039E-2,-5.254741E-3,3.961402E-2,-8.2696176E-1,2.6077926E-1,-8.814835E-1,-8.902896E-1,2.6329917E-1,9.6385545E-1,3.5717614E-2,1.4122477E-1,2.6410405E-4,1.0151186E-3,5.6845904E-5,1.4547871E-4,8.44958E-5,7.34489E-4,7.9263846E-5,-2.3789193E-4,-5.1406045E-5,1.6078291E-3,1.3082405E-3,-1.4373688E-3,-1.0001054E-3,9.962936E-4,-2.6773647E-3,2.8594732E-4,-8.897703E-4,-1.7984085E-4,-8.067679E-3,-2.8817274E-3,1.0438345E-3,-1.832988E-3,-0E0,6.8676793E-3,-1.8810897E-4,-1.4665534E-3,-2.5880765E-3,-5.9358524E-3,2.1675641E-3,-2.6786223E-3],"split_indices":[4,8,6,4,22,17,3,9,3,5,17,8,0,7,5,22,3,7,7,7,9,0,7,18,9,6,6,8,11,20,19,0,0,0,0,0,0,0,0,0,0,0,0,0,0,0,0,0,0,0,0,0,0,0,0,0,0,0,0,0,0],"split_type":[0,0,0,0,0,0,0,0,0,0,0,0,0,0,0,0,0,0,0,0,0,0,0,0,0,0,0,0,0,0,0,0,0,0,0,0,0,0,0,0,0,0,0,0,0,0,0,0,0,0,0,0,0,0,0,0,0,0,0,0,0],"sum_hessian":[1.77771E5,1.68635E5,9.136E3,1.25058E5,4.3577E4,7.794E3,1.342E3,1.07381E5,1.7677E4,4.2935E4,6.42E2,7.553E3,2.41E2,8.86E2,4.56E2,1.369E3,1.06012E5,3.24E3,1.4437E4,4.2381E4,5.54E2,1.6E1,6.26E2,1.128E3,6.425E3,6.4E1,1.77E2,2.5E1,8.61E2,2.79E2,1.77E2,9.4E2,4.29E2,7.8589E4,2.7423E4,2.462E3,7.78E2,4.678E3,9.759E3,4.2145E4,2.36E2,9.6E1,4.58E2,5.61E2,6.5E1,2E1,1.108E3,2.217E3,4.208E3,1E1,5.4E1,4.1E1,1.36E2,1.5E1,1E1,5.36E2,3.25E2,2.11E2,6.8E1,7.4E1,1.03E2],"tree_param":{"num_deleted":"0","num_feature":"23","num_nodes":"61","size_leaf_vector":"1"}},{"base_weights":[2.3175002E-4,1.1799728E-3,-1.6074866E-2,2.2828188E-3,-1.9432957E-3,-1.4095295E-2,-6.402862E-2,2.3697151E-3,-3.3901628E-2,-1.5309498E-3,-2.2435334E-2,8.579442E-3,-1.7404325E-2,-7.9434074E-2,2.611119E-2,3.1494203E-3,-4.9969647E-4,-4.400526E-2,8.893002E-2,-5.348821E-3,4.4081404E-4,2.7010866E-2,-3.062527E-2,-6.553521E-3,2.9235523E-2,-5.3969794E-3,-2.3850376E-2,-1.9289708E-2,-1.2367252E-1,-3.138159E-2,8.829617E-2,4.7257444E-4,8.953252E-5,-1.201816E-4,7.733022E-5,-1.9138592E-3,-4.6913465E-4,4.6312474E-3,1.0803796E-5,5.8990443E-4,-1.8656174E-4,2.1667936E-4,-3.4512927E-5,-5.198254E-4,3.4915926E-3,-6.854669E-4,-2.207539E-3,3.470075E-4,-6.4056634E-4,3.448236E-3,6.609347E-4,-3.9068214E-4,3.7392575E-4,-1.0426324E-3,-4.5761067E-4,-1.7078706E-3,3.7766583E-3,-2.754143E-3,-5.4875184E-3,-2.489219E-3,9.2421076E-4,4.006686E-3,1.0050117E-3],"categories":[],"categories_nodes":[],"categories_segments":[],"categories_sizes":[],"default_left":[0,0,0,0,0,0,0,0,0,0,0,0,0,0,0,0,0,0,0,0,0,0,0,0,0,0,0,0,0,0,0,0,0,0,0,0,0,0,0,0,0,0,0,0,0,0,0,0,0,0,0,0,0,0,0,0,0,0,0,0,0,0,0],"id":23,"left_children":[1,3,5,7,9,11,13,15,17,19,21,23,25,27,29,31,33,35,37,39,41,43,45,47,49,51,53,55,57,59,61,-1,-1,-1,-1,-1,-1,-1,-1,-1,-1,-1,-1,-1,-1,-1,-1,-1,-1,-1,-1,-1,-1,-1,-1,-1,-1,-1,-1,-1,-1,-1,-1],"loss_changes":[2.748825E0,5.7906646E-1,9.186349E-1,3.8763505E-1,3.6805075E-1,7.0520127E-1,5.42035E-1,2.7761286E-1,3.6552933E-1,3.2408923E-1,3.4945542E-1,3.750643E-1,6.311619E-1,8.6134696E-1,2.0867282E-1,2.0084482E-1,2.8567687E-1,1.4488065E-1,1.1199275E-1,3.1768915E-1,3.0634025E-1,4.914174E-1,2.3588568E-1,1.851824E-1,2.9682016E-1,3.9099026E-1,4.9372077E-1,7.762173E-1,3.1256676E-1,1.00818165E-1,4.8261806E-2,0E0,0E0,0E0,0E0,0E0,0E0,0E0,0E0,0E0,0E0,0E0,0E0,0E0,0E0,0E0,0E0,0E0,0E0,0E0,0E0,0E0,0E0,0E0,0E0,0E0,0E0,0E0,0E0,0E0,0E0,0E0,0E0],"parents":[2147483647,0,0,1,1,2,2,3,3,4,4,5,5,6,6,7,7,8,8,9,9,10,10,11,11,12,12,13,13,14,14,15,15,16,16,17,17,18,18,19,19,20,20,21,21,22,22,23,23,24,24,25,25,26,26,27,27,28,28,29,29,30,30],"right_children":[2,4,6,8,10,12,14,16,18,20,22,24,26,28,30,32,34,36,38,40,42,44,46,48,50,52,54,56,58,60,62,-1,-1,-1,-1,-1,-1,-1,-1,-1,-1,-1,-1,-1,-1,-1,-1,-1,-1,-1,-1,-1,-1,-1,-1,-1,-1,-1,-1,-1,-1,-1,-1],"split_conditions":[4.8811817E-1,1.3207547E-1,4.9870944E-1,1.4780766E-1,1.841617E-1,-5.9508346E-2,1.2555454E0,7.183099E-1,3.3059856E-1,1E0,1.4381726E-1,1.503006E-1,4.08076E-2,1.4451885E-1,9.9596775E-1,-1.8629186E-1,4.225352E-1,8.767926E-1,9.519038E-1,-1.17588766E-1,7.600303E-2,1.1770756E-1,9.9596775E-1,2.457383E-1,1.7458703E-2,8.5915494E-1,5.5374816E-2,8.817635E-1,8.688384E-1,2.0351087E-1,4.3311036E-1,4.7257444E-4,8.953252E-5,-1.201816E-4,7.733022E-5,-1.9138592E-3,-4.6913465E-4,4.6312474E-3,1.0803796E-5,5.8990443E-4,-1.8656174E-4,2.1667936E-4,-3.4512927E-5,-5.198254E-4,3.4915926E-3,-6.854669E-4,-2.207539E-3,3.470075E-4,-6.4056634E-4,3.448236E-3,6.609347E-4,-3.9068214E-4,3.7392575E-4,-1.0426324E-3,-4.5761067E-4,-1.7078706E-3,3.7766583E-3,-2.754143E-3,-5.4875184E-3,-2.489219E-3,9.2421076E-4,4.006686E-3,1.0050117E-3],"split_indices":[4,4,17,8,22,8,21,12,19,15,17,12,5,2,12,9,14,16,13,1,16,17,12,19,7,14,7,12,4,19,2,0,0,0,0,0,0,0,0,0,0,0,0,0,0,0,0,0,0,0,0,0,0,0,0,0,0,0,0,0,0,0,0],"split_type":[0,0,0,0,0,0,0,0,0,0,0,0,0,0,0,0,0,0,0,0,0,0,0,0,0,0,0,0,0,0,0,0,0,0,0,0,0,0,0,0,0,0,0,0,0,0,0,0,0,0,0,0,0,0,0,0,0,0,0,0,0,0,0],"sum_hessian":[1.7787E5,1.68102E5,9.768E3,1.24258E5,4.3844E4,9.384E3,3.84E2,1.23964E5,2.94E2,4.2985E4,8.59E2,1.191E3,8.193E3,3.29E2,5.5E1,9.7504E4,2.646E4,2.73E2,2.1E1,1.4656E4,2.8329E4,1.2E2,7.39E2,6.85E2,5.06E2,2.868E3,5.325E3,1.41E2,1.88E2,2.8E1,2.7E1,1.251E3,9.6253E4,1.2383E4,1.4077E4,1.58E2,1.15E2,1.1E1,1E1,4.88E2,1.4168E4,5.395E3,2.2934E4,8E1,4E1,6.29E2,1.1E2,3.05E2,3.8E2,3.7E1,4.69E2,2.014E3,8.54E2,2.341E3,2.984E3,1.13E2,2.8E1,1.25E2,6.3E1,1.6E1,1.2E1,1.3E1,1.4E1],"tree_param":{"num_deleted":"0","num_feature":"23","num_nodes":"63","size_leaf_vector":"1"}},{"base_weights":[-4.6562232E-5,1.1414124E-3,-7.7579324E-3,1.5729512E-3,-5.091182E-3,-6.707618E-3,-4.941572E-2,1.253111E-2,1.3616738E-3,-3.8972443E-3,-2.783165E-2,-4.567063E-3,-2.3348385E-2,-6.4178854E-2,3.89094E-2,-2.6463382E-2,1.3503669E-2,1.6369413E-3,-6.650892E-3,-8.389451E-3,-6.706438E-5,-2.3589319E-2,-9.387075E-2,-5.6889122E-3,3.0241745E-2,-2.4683746E-2,7.211855E-3,-4.4462614E-2,-1.5611388E-1,2.327711E-1,-5.1848054E-2,7.752039E-5,-2.72479E-3,1.7083748E-4,6.1082124E-4,8.481847E-5,1.1855446E-5,-3.0529054E-4,2.6152082E-4,3.399187E-4,-2.9554605E-4,3.884171E-5,-9.5917325E-4,-6.138633E-4,-2.841891E-3,-3.9673864E-4,-3.9715166E-3,-1.5419339E-4,-1.7312593E-3,3.7718218E-4,3.268024E-3,1.5928938E-4,-9.6269295E-4,6.9481807E-6,-1.715611E-3,1.2429523E-3,-5.6882077E-3,4.024153E-3,8.310523E-3,-2.6044804E-3,2.3454938E-3],"categories":[],"categories_nodes":[],"categories_segments":[],"categories_sizes":[],"default_left":[0,0,0,0,0,0,0,0,0,0,0,0,0,0,0,0,0,0,0,0,0,0,0,0,0,0,0,0,0,0,0,0,0,0,0,0,0,0,0,0,0,0,0,0,0,0,0,0,0,0,0,0,0,0,0,0,0,0,0,0,0],"id":24,"left_children":[1,3,5,7,9,11,13,15,17,19,21,23,25,27,29,31,33,35,37,39,41,43,45,47,49,51,-1,53,55,57,59,-1,-1,-1,-1,-1,-1,-1,-1,-1,-1,-1,-1,-1,-1,-1,-1,-1,-1,-1,-1,-1,-1,-1,-1,-1,-1,-1,-1,-1,-1],"loss_changes":[1.6309283E0,4.1437203E-1,1.033952E0,3.3250034E-1,2.6741117E-1,8.229984E-1,7.6392627E-1,1.0217789E-1,3.116128E-1,1.6223188E-1,1.2415841E-1,8.0019903E-1,9.1309404E-1,8.7930775E-1,1.4904956E0,1.2871179E-1,1.3949993E-1,2.0190975E-1,2.5423115E-1,1.2538472E-1,2.2595581E-1,9.0213835E-2,7.0654646E-2,5.622192E-1,8.749557E-1,5.8594394E-1,0E0,2.411539E-1,5.9830093E-1,3.9557457E-2,2.668256E-1,0E0,0E0,0E0,0E0,0E0,0E0,0E0,0E0,0E0,0E0,0E0,0E0,0E0,0E0,0E0,0E0,0E0,0E0,0E0,0E0,0E0,0E0,0E0,0E0,0E0,0E0,0E0,0E0,0E0,0E0],"parents":[2147483647,0,0,1,1,2,2,3,3,4,4,5,5,6,6,7,7,8,8,9,9,10,10,11,11,12,12,13,13,14,14,15,15,16,16,17,17,18,18,19,19,20,20,21,21,22,22,23,23,24,24,25,25,27,27,28,28,29,29,30,30],"right_children":[2,4,6,8,10,12,14,16,18,20,22,24,26,28,30,32,34,36,38,40,42,44,46,48,50,52,-1,54,56,58,60,-1,-1,-1,-1,-1,-1,-1,-1,-1,-1,-1,-1,-1,-1,-1,-1,-1,-1,-1,-1,-1,-1,-1,-1,-1,-1,-1,-1,-1,-1],"split_conditions":[1.3272125E-1,8.8955826E-1,8.9993805E1,-1.6352454E-1,9.864225E-1,5.6107596E-2,9.7590363E-1,6.012024E-3,2.0674959E-1,4.6184737E-2,8.634538E-2,9.839034E-1,2.7608657E-1,4.4527102E-2,6.0355935E-2,4.4527102E-2,2.778738E-2,1.8506719E-2,8.076152E-1,-5.4721832E-2,1.5683581E0,7.885677E-1,7.266055E-2,3.224663E-1,1.0590386E0,-9.090909E-2,7.211855E-3,1.5791056E-1,-7.5572485E-4,9.839034E-1,3.475964E-1,7.752039E-5,-2.72479E-3,1.7083748E-4,6.1082124E-4,8.481847E-5,1.1855446E-5,-3.0529054E-4,2.6152082E-4,3.399187E-4,-2.9554605E-4,3.884171E-5,-9.5917325E-4,-6.138633E-4,-2.841891E-3,-3.9673864E-4,-3.9715166E-3,-1.5419339E-4,-1.7312593E-3,3.7718218E-4,3.268024E-3,1.5928938E-4,-9.6269295E-4,6.9481807E-6,-1.715611E-3,1.2429523E-3,-5.6882077E-3,4.024153E-3,8.310523E-3,-2.6044804E-3,2.3454938E-3],"split_indices":[9,12,10,9,16,5,14,11,21,18,18,14,22,5,5,5,5,5,14,21,21,21,1,8,21,1,0,8,22,14,17,0,0,0,0,0,0,0,0,0,0,0,0,0,0,0,0,0,0,0,0,0,0,0,0,0,0,0,0,0,0],"split_type":[0,0,0,0,0,0,0,0,0,0,0,0,0,0,0,0,0,0,0,0,0,0,0,0,0,0,0,0,0,0,0,0,0,0,0,0,0,0,0,0,0,0,0,0,0,0,0,0,0,0,0,0,0,0,0,0,0,0,0,0,0],"sum_hessian":[1.77957E5,1.54191E5,2.3766E4,1.44222E5,9.969E3,2.3185E4,5.81E2,2.718E3,1.41504E5,9.477E3,4.92E2,2.0549E4,2.636E3,4.99E2,8.2E1,6.3E1,2.655E3,1.36817E5,4.687E3,4.349E3,5.128E3,4.65E2,2.7E1,1.9911E4,6.38E2,2.624E3,1.2E1,4.13E2,8.6E1,2.6E1,5.6E1,4.3E1,2E1,1.249E3,1.406E3,6.9813E4,6.7004E4,3.818E3,8.69E2,2.95E2,4.054E3,4.916E3,2.12E2,4.48E2,1.7E1,1E1,1.7E1,1.9706E4,2.05E2,5.23E2,1.15E2,5.17E2,2.107E3,9E1,3.23E2,1.2E1,7.4E1,1E1,1.6E1,4.5E1,1.1E1],"tree_param":{"num_deleted":"0","num_feature":"23","num_nodes":"61","size_leaf_vector":"1"}},{"base_weights":[-2.1908236E-5,1.3741828E-3,-1.0264045E-2,2.1706647E-3,-2.0518836E-3,-7.854765E-3,-2.6124693E-2,2.937567E-3,-1.5310599E-3,-3.8584112E-4,-7.7705546E-3,-4.934241E-2,-7.0068967E-3,-1.8774666E-2,-6.372467E-2,1.6358493E-2,2.7731657E-3,-1.6786042E-3,9.000548E-2,-8.913661E-4,1.961988E-2,-3.239711E-2,-5.6588836E-3,-3.321551E-2,-1.3527884E-1,-5.231961E-3,-2.29361E-2,-1.3789092E-2,-4.8705723E-2,-1.2283493E-1,-2.590886E-2,-0E0,6.746211E-4,-5.5239165E-5,9.2564886E-5,1.1295194E-4,-1.146753E-4,4.6778084E-3,-0E0,-3.444121E-5,1.0622854E-3,7.9803413E-4,-2.0037638E-3,-6.495609E-4,-2.8113513E-3,-1.12146954E-4,-7.723787E-4,-1.4664729E-3,4.0202744E-6,-5.2306736E-3,8.1038175E-5,-2.8399169E-4,5.679787E-5,1.0765704E-3,-8.621082E-4,2.1906295E-3,-4.4621754E-4,-2.020845E-3,4.8445343E-4,-3.9278623E-4,-4.472628E-3,-2.1446522E-4,-4.291636E-3],"categories":[],"categories_nodes":[],"categories_segments":[],"categories_sizes":[],"default_left":[0,0,0,0,0,0,0,0,0,0,0,0,0,0,0,0,0,0,0,0,0,0,0,0,0,0,0,0,0,0,0,0,0,0,0,0,0,0,0,0,0,0,0,0,0,0,0,0,0,0,0,0,0,0,0,0,0,0,0,0,0,0,0],"id":25,"left_children":[1,3,5,7,9,11,13,15,17,19,21,23,25,27,29,31,33,35,37,39,41,43,45,47,49,51,53,55,57,59,61,-1,-1,-1,-1,-1,-1,-1,-1,-1,-1,-1,-1,-1,-1,-1,-1,-1,-1,-1,-1,-1,-1,-1,-1,-1,-1,-1,-1,-1,-1,-1,-1],"loss_changes":[2.5461028E0,4.2745277E-1,8.12659E-1,3.610127E-1,2.8046322E-1,6.465707E-1,7.6740384E-1,2.3042989E-1,2.8566152E-1,2.295087E-1,3.416762E-1,4.9004996E-1,5.111568E-1,3.445003E-1,1.0034763E0,1.261777E-1,1.5010267E-1,2.5398657E-1,1.8651748E-1,2.0457193E-1,3.3498245E-1,3.296852E-1,2.333367E-1,1.6841891E-1,3.2497132E-1,4.9458814E-1,6.203054E-1,1.8578514E-1,4.091075E-1,4.9177074E-1,6.01498E-1,0E0,0E0,0E0,0E0,0E0,0E0,0E0,0E0,0E0,0E0,0E0,0E0,0E0,0E0,0E0,0E0,0E0,0E0,0E0,0E0,0E0,0E0,0E0,0E0,0E0,0E0,0E0,0E0,0E0,0E0,0E0,0E0],"parents":[2147483647,0,0,1,1,2,2,3,3,4,4,5,5,6,6,7,7,8,8,9,9,10,10,11,11,12,12,13,13,14,14,15,15,16,16,17,17,18,18,19,19,20,20,21,21,22,22,23,23,24,24,25,25,26,26,27,27,28,28,29,29,30,30],"right_children":[2,4,6,8,10,12,14,16,18,20,22,24,26,28,30,32,34,36,38,40,42,44,46,48,50,52,54,56,58,60,62,-1,-1,-1,-1,-1,-1,-1,-1,-1,-1,-1,-1,-1,-1,-1,-1,-1,-1,-1,-1,-1,-1,-1,-1,-1,-1,-1,-1,-1,-1,-1,-1],"split_conditions":[3.0623257E-1,7.811245E-1,1.4198056E0,1.3207547E-1,1.6807622E0,-9.379605E-2,4.5092008E-1,-1.8629186E-1,2.6584235E-1,4.8798572E-2,6.6411026E-2,5.742972E-1,9.7816825E-1,6.33391E-2,9.294355E-1,1.6185556E-2,5.62249E-2,2.0706505E-2,1.7029893E-1,1.8364571E-1,2.4082687E-1,8.273331E1,